digraph Tree {
node [shape=box, style="filled", color="black"] ;
0 [label="TimeSlot(21-23) <= 1.5\ngini = 0.5\nsamples = 4500\nvalue = [2279, 2221]\nclass = F", fillcolor="#e5813906"] ;
1 [label="Age <= 6.5\ngini = 0.499\nsamples = 2230\nvalue = [1165, 1065]\nclass = F", fillcolor="#e5813916"] ;
0 -> 1 [labeldistance=2.5, labelangle=45, headlabel="True"] ;
2 [label="TimeSlot(4-7) <= 2.5\ngini = 0.498\nsamples = 408\nvalue = [192, 216]\nclass = M", fillcolor="#399de51c"] ;
1 -> 2 ;
3 [label="TimeSlot(0-3) <= 0.5\ngini = 0.5\nsamples = 290\nvalue = [146, 144]\nclass = F", fillcolor="#e5813903"] ;
2 -> 3 ;
4 [label="TimeSlot(4-7) <= 0.5\ngini = 0.478\nsamples = 76\nvalue = [46, 30]\nclass = F", fillcolor="#e5813959"] ;
3 -> 4 ;
5 [label="TimeSlot(14-15) <= 0.5\ngini = 0.499\nsamples = 27\nvalue = [13, 14]\nclass = M", fillcolor="#399de512"] ;
4 -> 5 ;
6 [label="TimeSlot(16-20) <= 2.5\ngini = 0.469\nsamples = 16\nvalue = [10, 6]\nclass = F", fillcolor="#e5813966"] ;
5 -> 6 ;
7 [label="Age <= 5.0\ngini = 0.469\nsamples = 8\nvalue = [3, 5]\nclass = M", fillcolor="#399de566"] ;
6 -> 7 ;
8 [label="Age <= 0.5\ngini = 0.408\nsamples = 7\nvalue = [2, 5]\nclass = M", fillcolor="#399de599"] ;
7 -> 8 ;
9 [label="TimeSlot(21-23) <= 0.5\ngini = 0.5\nsamples = 4\nvalue = [2, 2]\nclass = F", fillcolor="#e5813900"] ;
8 -> 9 ;
10 [label="TimeSlot(8-11) <= 1.0\ngini = 0.444\nsamples = 3\nvalue = [1, 2]\nclass = M", fillcolor="#399de57f"] ;
9 -> 10 ;
11 [label="gini = 0.0\nsamples = 1\nvalue = [1, 0]\nclass = F", fillcolor="#e58139ff"] ;
10 -> 11 ;
12 [label="gini = 0.0\nsamples = 2\nvalue = [0, 2]\nclass = M", fillcolor="#399de5ff"] ;
10 -> 12 ;
13 [label="gini = 0.0\nsamples = 1\nvalue = [1, 0]\nclass = F", fillcolor="#e58139ff"] ;
9 -> 13 ;
14 [label="gini = 0.0\nsamples = 3\nvalue = [0, 3]\nclass = M", fillcolor="#399de5ff"] ;
8 -> 14 ;
15 [label="gini = 0.0\nsamples = 1\nvalue = [1, 0]\nclass = F", fillcolor="#e58139ff"] ;
7 -> 15 ;
16 [label="TimeSlot(12-13) <= 0.5\ngini = 0.219\nsamples = 8\nvalue = [7, 1]\nclass = F", fillcolor="#e58139db"] ;
6 -> 16 ;
17 [label="Age <= 1.5\ngini = 0.5\nsamples = 2\nvalue = [1, 1]\nclass = F", fillcolor="#e5813900"] ;
16 -> 17 ;
18 [label="gini = 0.0\nsamples = 1\nvalue = [1, 0]\nclass = F", fillcolor="#e58139ff"] ;
17 -> 18 ;
19 [label="gini = 0.0\nsamples = 1\nvalue = [0, 1]\nclass = M", fillcolor="#399de5ff"] ;
17 -> 19 ;
20 [label="gini = 0.0\nsamples = 6\nvalue = [6, 0]\nclass = F", fillcolor="#e58139ff"] ;
16 -> 20 ;
21 [label="TimeSlot(21-23) <= 0.5\ngini = 0.397\nsamples = 11\nvalue = [3, 8]\nclass = M", fillcolor="#399de59f"] ;
5 -> 21 ;
22 [label="gini = 0.0\nsamples = 4\nvalue = [0, 4]\nclass = M", fillcolor="#399de5ff"] ;
21 -> 22 ;
23 [label="TimeSlot(12-13) <= 0.5\ngini = 0.49\nsamples = 7\nvalue = [3, 4]\nclass = M", fillcolor="#399de540"] ;
21 -> 23 ;
24 [label="Age <= 1.5\ngini = 0.48\nsamples = 5\nvalue = [3, 2]\nclass = F", fillcolor="#e5813955"] ;
23 -> 24 ;
25 [label="gini = 0.0\nsamples = 2\nvalue = [2, 0]\nclass = F", fillcolor="#e58139ff"] ;
24 -> 25 ;
26 [label="TimeSlot(16-20) <= 0.5\ngini = 0.444\nsamples = 3\nvalue = [1, 2]\nclass = M", fillcolor="#399de57f"] ;
24 -> 26 ;
27 [label="gini = 0.0\nsamples = 1\nvalue = [1, 0]\nclass = F", fillcolor="#e58139ff"] ;
26 -> 27 ;
28 [label="gini = 0.0\nsamples = 2\nvalue = [0, 2]\nclass = M", fillcolor="#399de5ff"] ;
26 -> 28 ;
29 [label="gini = 0.0\nsamples = 2\nvalue = [0, 2]\nclass = M", fillcolor="#399de5ff"] ;
23 -> 29 ;
30 [label="Age <= 2.5\ngini = 0.44\nsamples = 49\nvalue = [33, 16]\nclass = F", fillcolor="#e5813983"] ;
4 -> 30 ;
31 [label="TimeSlot(16-20) <= 0.5\ngini = 0.491\nsamples = 23\nvalue = [13, 10]\nclass = F", fillcolor="#e581393b"] ;
30 -> 31 ;
32 [label="TimeSlot(14-15) <= 0.5\ngini = 0.375\nsamples = 4\nvalue = [1, 3]\nclass = M", fillcolor="#399de5aa"] ;
31 -> 32 ;
33 [label="gini = 0.0\nsamples = 3\nvalue = [0, 3]\nclass = M", fillcolor="#399de5ff"] ;
32 -> 33 ;
34 [label="gini = 0.0\nsamples = 1\nvalue = [1, 0]\nclass = F", fillcolor="#e58139ff"] ;
32 -> 34 ;
35 [label="TimeSlot(8-11) <= 2.5\ngini = 0.465\nsamples = 19\nvalue = [12, 7]\nclass = F", fillcolor="#e581396a"] ;
31 -> 35 ;
36 [label="TimeSlot(16-20) <= 3.5\ngini = 0.484\nsamples = 17\nvalue = [10, 7]\nclass = F", fillcolor="#e581394d"] ;
35 -> 36 ;
37 [label="TimeSlot(4-7) <= 1.5\ngini = 0.459\nsamples = 14\nvalue = [9, 5]\nclass = F", fillcolor="#e5813971"] ;
36 -> 37 ;
38 [label="Age <= 1.5\ngini = 0.375\nsamples = 8\nvalue = [6, 2]\nclass = F", fillcolor="#e58139aa"] ;
37 -> 38 ;
39 [label="TimeSlot(14-15) <= 0.5\ngini = 0.5\nsamples = 4\nvalue = [2, 2]\nclass = F", fillcolor="#e5813900"] ;
38 -> 39 ;
40 [label="gini = 0.0\nsamples = 2\nvalue = [2, 0]\nclass = F", fillcolor="#e58139ff"] ;
39 -> 40 ;
41 [label="gini = 0.0\nsamples = 2\nvalue = [0, 2]\nclass = M", fillcolor="#399de5ff"] ;
39 -> 41 ;
42 [label="gini = 0.0\nsamples = 4\nvalue = [4, 0]\nclass = F", fillcolor="#e58139ff"] ;
38 -> 42 ;
43 [label="TimeSlot(12-13) <= 0.5\ngini = 0.5\nsamples = 6\nvalue = [3, 3]\nclass = F", fillcolor="#e5813900"] ;
37 -> 43 ;
44 [label="Age <= 1.5\ngini = 0.375\nsamples = 4\nvalue = [3, 1]\nclass = F", fillcolor="#e58139aa"] ;
43 -> 44 ;
45 [label="gini = 0.0\nsamples = 2\nvalue = [2, 0]\nclass = F", fillcolor="#e58139ff"] ;
44 -> 45 ;
46 [label="TimeSlot(14-15) <= 0.5\ngini = 0.5\nsamples = 2\nvalue = [1, 1]\nclass = F", fillcolor="#e5813900"] ;
44 -> 46 ;
47 [label="gini = 0.0\nsamples = 1\nvalue = [0, 1]\nclass = M", fillcolor="#399de5ff"] ;
46 -> 47 ;
48 [label="gini = 0.0\nsamples = 1\nvalue = [1, 0]\nclass = F", fillcolor="#e58139ff"] ;
46 -> 48 ;
49 [label="gini = 0.0\nsamples = 2\nvalue = [0, 2]\nclass = M", fillcolor="#399de5ff"] ;
43 -> 49 ;
50 [label="TimeSlot(4-7) <= 1.5\ngini = 0.444\nsamples = 3\nvalue = [1, 2]\nclass = M", fillcolor="#399de57f"] ;
36 -> 50 ;
51 [label="gini = 0.0\nsamples = 2\nvalue = [0, 2]\nclass = M", fillcolor="#399de5ff"] ;
50 -> 51 ;
52 [label="gini = 0.0\nsamples = 1\nvalue = [1, 0]\nclass = F", fillcolor="#e58139ff"] ;
50 -> 52 ;
53 [label="gini = 0.0\nsamples = 2\nvalue = [2, 0]\nclass = F", fillcolor="#e58139ff"] ;
35 -> 53 ;
54 [label="TimeSlot(4-7) <= 1.5\ngini = 0.355\nsamples = 26\nvalue = [20, 6]\nclass = F", fillcolor="#e58139b3"] ;
30 -> 54 ;
55 [label="Age <= 5.5\ngini = 0.124\nsamples = 15\nvalue = [14, 1]\nclass = F", fillcolor="#e58139ed"] ;
54 -> 55 ;
56 [label="gini = 0.0\nsamples = 10\nvalue = [10, 0]\nclass = F", fillcolor="#e58139ff"] ;
55 -> 56 ;
57 [label="TimeSlot(16-20) <= 2.0\ngini = 0.32\nsamples = 5\nvalue = [4, 1]\nclass = F", fillcolor="#e58139bf"] ;
55 -> 57 ;
58 [label="gini = 0.0\nsamples = 3\nvalue = [3, 0]\nclass = F", fillcolor="#e58139ff"] ;
57 -> 58 ;
59 [label="TimeSlot(12-13) <= 0.5\ngini = 0.5\nsamples = 2\nvalue = [1, 1]\nclass = F", fillcolor="#e5813900"] ;
57 -> 59 ;
60 [label="gini = 0.0\nsamples = 1\nvalue = [1, 0]\nclass = F", fillcolor="#e58139ff"] ;
59 -> 60 ;
61 [label="gini = 0.0\nsamples = 1\nvalue = [0, 1]\nclass = M", fillcolor="#399de5ff"] ;
59 -> 61 ;
62 [label="TimeSlot(8-11) <= 0.5\ngini = 0.496\nsamples = 11\nvalue = [6, 5]\nclass = F", fillcolor="#e581392a"] ;
54 -> 62 ;
63 [label="gini = 0.0\nsamples = 1\nvalue = [1, 0]\nclass = F", fillcolor="#e58139ff"] ;
62 -> 63 ;
64 [label="TimeSlot(16-20) <= 3.0\ngini = 0.5\nsamples = 10\nvalue = [5, 5]\nclass = F", fillcolor="#e5813900"] ;
62 -> 64 ;
65 [label="Age <= 4.5\ngini = 0.49\nsamples = 7\nvalue = [3, 4]\nclass = M", fillcolor="#399de540"] ;
64 -> 65 ;
66 [label="gini = 0.0\nsamples = 2\nvalue = [0, 2]\nclass = M", fillcolor="#399de5ff"] ;
65 -> 66 ;
67 [label="TimeSlot(8-11) <= 2.0\ngini = 0.48\nsamples = 5\nvalue = [3, 2]\nclass = F", fillcolor="#e5813955"] ;
65 -> 67 ;
68 [label="TimeSlot(16-20) <= 0.5\ngini = 0.444\nsamples = 3\nvalue = [2, 1]\nclass = F", fillcolor="#e581397f"] ;
67 -> 68 ;
69 [label="gini = 0.0\nsamples = 1\nvalue = [0, 1]\nclass = M", fillcolor="#399de5ff"] ;
68 -> 69 ;
70 [label="gini = 0.0\nsamples = 2\nvalue = [2, 0]\nclass = F", fillcolor="#e58139ff"] ;
68 -> 70 ;
71 [label="TimeSlot(16-20) <= 0.5\ngini = 0.5\nsamples = 2\nvalue = [1, 1]\nclass = F", fillcolor="#e5813900"] ;
67 -> 71 ;
72 [label="gini = 0.0\nsamples = 1\nvalue = [1, 0]\nclass = F", fillcolor="#e58139ff"] ;
71 -> 72 ;
73 [label="gini = 0.0\nsamples = 1\nvalue = [0, 1]\nclass = M", fillcolor="#399de5ff"] ;
71 -> 73 ;
74 [label="Age <= 4.5\ngini = 0.444\nsamples = 3\nvalue = [2, 1]\nclass = F", fillcolor="#e581397f"] ;
64 -> 74 ;
75 [label="gini = 0.0\nsamples = 2\nvalue = [2, 0]\nclass = F", fillcolor="#e58139ff"] ;
74 -> 75 ;
76 [label="gini = 0.0\nsamples = 1\nvalue = [0, 1]\nclass = M", fillcolor="#399de5ff"] ;
74 -> 76 ;
77 [label="TimeSlot(4-7) <= 0.5\ngini = 0.498\nsamples = 214\nvalue = [100, 114]\nclass = M", fillcolor="#399de51f"] ;
3 -> 77 ;
78 [label="TimeSlot(0-3) <= 2.5\ngini = 0.49\nsamples = 65\nvalue = [37, 28]\nclass = F", fillcolor="#e581393e"] ;
77 -> 78 ;
79 [label="Age <= 0.5\ngini = 0.454\nsamples = 43\nvalue = [28, 15]\nclass = F", fillcolor="#e5813976"] ;
78 -> 79 ;
80 [label="TimeSlot(14-15) <= 0.5\ngini = 0.375\nsamples = 4\nvalue = [1, 3]\nclass = M", fillcolor="#399de5aa"] ;
79 -> 80 ;
81 [label="gini = 0.0\nsamples = 1\nvalue = [1, 0]\nclass = F", fillcolor="#e58139ff"] ;
80 -> 81 ;
82 [label="gini = 0.0\nsamples = 3\nvalue = [0, 3]\nclass = M", fillcolor="#399de5ff"] ;
80 -> 82 ;
83 [label="TimeSlot(21-23) <= 0.5\ngini = 0.426\nsamples = 39\nvalue = [27, 12]\nclass = F", fillcolor="#e581398e"] ;
79 -> 83 ;
84 [label="Age <= 2.5\ngini = 0.142\nsamples = 13\nvalue = [12, 1]\nclass = F", fillcolor="#e58139ea"] ;
83 -> 84 ;
85 [label="TimeSlot(8-11) <= 2.5\ngini = 0.444\nsamples = 3\nvalue = [2, 1]\nclass = F", fillcolor="#e581397f"] ;
84 -> 85 ;
86 [label="gini = 0.0\nsamples = 2\nvalue = [2, 0]\nclass = F", fillcolor="#e58139ff"] ;
85 -> 86 ;
87 [label="gini = 0.0\nsamples = 1\nvalue = [0, 1]\nclass = M", fillcolor="#399de5ff"] ;
85 -> 87 ;
88 [label="gini = 0.0\nsamples = 10\nvalue = [10, 0]\nclass = F", fillcolor="#e58139ff"] ;
84 -> 88 ;
89 [label="Age <= 4.5\ngini = 0.488\nsamples = 26\nvalue = [15, 11]\nclass = F", fillcolor="#e5813944"] ;
83 -> 89 ;
90 [label="TimeSlot(0-3) <= 1.5\ngini = 0.375\nsamples = 16\nvalue = [12, 4]\nclass = F", fillcolor="#e58139aa"] ;
89 -> 90 ;
91 [label="gini = 0.0\nsamples = 6\nvalue = [6, 0]\nclass = F", fillcolor="#e58139ff"] ;
90 -> 91 ;
92 [label="TimeSlot(8-11) <= 2.5\ngini = 0.48\nsamples = 10\nvalue = [6, 4]\nclass = F", fillcolor="#e5813955"] ;
90 -> 92 ;
93 [label="TimeSlot(14-15) <= 0.5\ngini = 0.444\nsamples = 9\nvalue = [6, 3]\nclass = F", fillcolor="#e581397f"] ;
92 -> 93 ;
94 [label="TimeSlot(8-11) <= 1.5\ngini = 0.444\nsamples = 3\nvalue = [1, 2]\nclass = M", fillcolor="#399de57f"] ;
93 -> 94 ;
95 [label="gini = 0.0\nsamples = 2\nvalue = [0, 2]\nclass = M", fillcolor="#399de5ff"] ;
94 -> 95 ;
96 [label="gini = 0.0\nsamples = 1\nvalue = [1, 0]\nclass = F", fillcolor="#e58139ff"] ;
94 -> 96 ;
97 [label="TimeSlot(16-20) <= 3.5\ngini = 0.278\nsamples = 6\nvalue = [5, 1]\nclass = F", fillcolor="#e58139cc"] ;
93 -> 97 ;
98 [label="gini = 0.0\nsamples = 4\nvalue = [4, 0]\nclass = F", fillcolor="#e58139ff"] ;
97 -> 98 ;
99 [label="gini = 0.5\nsamples = 2\nvalue = [1, 1]\nclass = F", fillcolor="#e5813900"] ;
97 -> 99 ;
100 [label="gini = 0.0\nsamples = 1\nvalue = [0, 1]\nclass = M", fillcolor="#399de5ff"] ;
92 -> 100 ;
101 [label="TimeSlot(16-20) <= 3.0\ngini = 0.42\nsamples = 10\nvalue = [3, 7]\nclass = M", fillcolor="#399de592"] ;
89 -> 101 ;
102 [label="TimeSlot(8-11) <= 0.5\ngini = 0.346\nsamples = 9\nvalue = [2, 7]\nclass = M", fillcolor="#399de5b6"] ;
101 -> 102 ;
103 [label="gini = 0.0\nsamples = 3\nvalue = [0, 3]\nclass = M", fillcolor="#399de5ff"] ;
102 -> 103 ;
104 [label="TimeSlot(8-11) <= 1.5\ngini = 0.444\nsamples = 6\nvalue = [2, 4]\nclass = M", fillcolor="#399de57f"] ;
102 -> 104 ;
105 [label="gini = 0.0\nsamples = 1\nvalue = [1, 0]\nclass = F", fillcolor="#e58139ff"] ;
104 -> 105 ;
106 [label="TimeSlot(16-20) <= 1.5\ngini = 0.32\nsamples = 5\nvalue = [1, 4]\nclass = M", fillcolor="#399de5bf"] ;
104 -> 106 ;
107 [label="Age <= 5.5\ngini = 0.5\nsamples = 2\nvalue = [1, 1]\nclass = F", fillcolor="#e5813900"] ;
106 -> 107 ;
108 [label="gini = 0.0\nsamples = 1\nvalue = [1, 0]\nclass = F", fillcolor="#e58139ff"] ;
107 -> 108 ;
109 [label="gini = 0.0\nsamples = 1\nvalue = [0, 1]\nclass = M", fillcolor="#399de5ff"] ;
107 -> 109 ;
110 [label="gini = 0.0\nsamples = 3\nvalue = [0, 3]\nclass = M", fillcolor="#399de5ff"] ;
106 -> 110 ;
111 [label="gini = 0.0\nsamples = 1\nvalue = [1, 0]\nclass = F", fillcolor="#e58139ff"] ;
101 -> 111 ;
112 [label="TimeSlot(16-20) <= 1.0\ngini = 0.483\nsamples = 22\nvalue = [9, 13]\nclass = M", fillcolor="#399de54e"] ;
78 -> 112 ;
113 [label="gini = 0.0\nsamples = 3\nvalue = [0, 3]\nclass = M", fillcolor="#399de5ff"] ;
112 -> 113 ;
114 [label="TimeSlot(8-11) <= 0.5\ngini = 0.499\nsamples = 19\nvalue = [9, 10]\nclass = M", fillcolor="#399de519"] ;
112 -> 114 ;
115 [label="gini = 0.0\nsamples = 3\nvalue = [3, 0]\nclass = F", fillcolor="#e58139ff"] ;
114 -> 115 ;
116 [label="Age <= 5.5\ngini = 0.469\nsamples = 16\nvalue = [6, 10]\nclass = M", fillcolor="#399de566"] ;
114 -> 116 ;
117 [label="Age <= 4.0\ngini = 0.496\nsamples = 11\nvalue = [5, 6]\nclass = M", fillcolor="#399de52a"] ;
116 -> 117 ;
118 [label="TimeSlot(16-20) <= 2.5\ngini = 0.444\nsamples = 9\nvalue = [3, 6]\nclass = M", fillcolor="#399de57f"] ;
117 -> 118 ;
119 [label="TimeSlot(8-11) <= 2.5\ngini = 0.278\nsamples = 6\nvalue = [1, 5]\nclass = M", fillcolor="#399de5cc"] ;
118 -> 119 ;
120 [label="TimeSlot(12-13) <= 0.5\ngini = 0.5\nsamples = 2\nvalue = [1, 1]\nclass = F", fillcolor="#e5813900"] ;
119 -> 120 ;
121 [label="gini = 0.0\nsamples = 1\nvalue = [0, 1]\nclass = M", fillcolor="#399de5ff"] ;
120 -> 121 ;
122 [label="gini = 0.0\nsamples = 1\nvalue = [1, 0]\nclass = F", fillcolor="#e58139ff"] ;
120 -> 122 ;
123 [label="gini = 0.0\nsamples = 4\nvalue = [0, 4]\nclass = M", fillcolor="#399de5ff"] ;
119 -> 123 ;
124 [label="Age <= 2.5\ngini = 0.444\nsamples = 3\nvalue = [2, 1]\nclass = F", fillcolor="#e581397f"] ;
118 -> 124 ;
125 [label="gini = 0.0\nsamples = 2\nvalue = [2, 0]\nclass = F", fillcolor="#e58139ff"] ;
124 -> 125 ;
126 [label="gini = 0.0\nsamples = 1\nvalue = [0, 1]\nclass = M", fillcolor="#399de5ff"] ;
124 -> 126 ;
127 [label="gini = 0.0\nsamples = 2\nvalue = [2, 0]\nclass = F", fillcolor="#e58139ff"] ;
117 -> 127 ;
128 [label="TimeSlot(21-23) <= 0.5\ngini = 0.32\nsamples = 5\nvalue = [1, 4]\nclass = M", fillcolor="#399de5bf"] ;
116 -> 128 ;
129 [label="gini = 0.0\nsamples = 1\nvalue = [1, 0]\nclass = F", fillcolor="#e58139ff"] ;
128 -> 129 ;
130 [label="gini = 0.0\nsamples = 4\nvalue = [0, 4]\nclass = M", fillcolor="#399de5ff"] ;
128 -> 130 ;
131 [label="Age <= 2.5\ngini = 0.488\nsamples = 149\nvalue = [63, 86]\nclass = M", fillcolor="#399de544"] ;
77 -> 131 ;
132 [label="TimeSlot(8-11) <= 0.5\ngini = 0.489\nsamples = 54\nvalue = [31, 23]\nclass = F", fillcolor="#e5813942"] ;
131 -> 132 ;
133 [label="TimeSlot(16-20) <= 0.5\ngini = 0.298\nsamples = 11\nvalue = [9, 2]\nclass = F", fillcolor="#e58139c6"] ;
132 -> 133 ;
134 [label="TimeSlot(21-23) <= 0.5\ngini = 0.5\nsamples = 4\nvalue = [2, 2]\nclass = F", fillcolor="#e5813900"] ;
133 -> 134 ;
135 [label="gini = 0.0\nsamples = 2\nvalue = [0, 2]\nclass = M", fillcolor="#399de5ff"] ;
134 -> 135 ;
136 [label="gini = 0.0\nsamples = 2\nvalue = [2, 0]\nclass = F", fillcolor="#e58139ff"] ;
134 -> 136 ;
137 [label="gini = 0.0\nsamples = 7\nvalue = [7, 0]\nclass = F", fillcolor="#e58139ff"] ;
133 -> 137 ;
138 [label="TimeSlot(21-23) <= 0.5\ngini = 0.5\nsamples = 43\nvalue = [22, 21]\nclass = F", fillcolor="#e581390c"] ;
132 -> 138 ;
139 [label="TimeSlot(16-20) <= 1.5\ngini = 0.463\nsamples = 22\nvalue = [14, 8]\nclass = F", fillcolor="#e581396d"] ;
138 -> 139 ;
140 [label="TimeSlot(14-15) <= 0.5\ngini = 0.245\nsamples = 7\nvalue = [6, 1]\nclass = F", fillcolor="#e58139d4"] ;
139 -> 140 ;
141 [label="Age <= 1.0\ngini = 0.5\nsamples = 2\nvalue = [1, 1]\nclass = F", fillcolor="#e5813900"] ;
140 -> 141 ;
142 [label="gini = 0.0\nsamples = 1\nvalue = [0, 1]\nclass = M", fillcolor="#399de5ff"] ;
141 -> 142 ;
143 [label="gini = 0.0\nsamples = 1\nvalue = [1, 0]\nclass = F", fillcolor="#e58139ff"] ;
141 -> 143 ;
144 [label="gini = 0.0\nsamples = 5\nvalue = [5, 0]\nclass = F", fillcolor="#e58139ff"] ;
140 -> 144 ;
145 [label="TimeSlot(14-15) <= 0.5\ngini = 0.498\nsamples = 15\nvalue = [8, 7]\nclass = F", fillcolor="#e5813920"] ;
139 -> 145 ;
146 [label="TimeSlot(4-7) <= 1.5\ngini = 0.375\nsamples = 8\nvalue = [6, 2]\nclass = F", fillcolor="#e58139aa"] ;
145 -> 146 ;
147 [label="TimeSlot(16-20) <= 2.5\ngini = 0.5\nsamples = 4\nvalue = [2, 2]\nclass = F", fillcolor="#e5813900"] ;
146 -> 147 ;
148 [label="gini = 0.0\nsamples = 2\nvalue = [0, 2]\nclass = M", fillcolor="#399de5ff"] ;
147 -> 148 ;
149 [label="gini = 0.0\nsamples = 2\nvalue = [2, 0]\nclass = F", fillcolor="#e58139ff"] ;
147 -> 149 ;
150 [label="gini = 0.0\nsamples = 4\nvalue = [4, 0]\nclass = F", fillcolor="#e58139ff"] ;
146 -> 150 ;
151 [label="TimeSlot(4-7) <= 1.5\ngini = 0.408\nsamples = 7\nvalue = [2, 5]\nclass = M", fillcolor="#399de599"] ;
145 -> 151 ;
152 [label="TimeSlot(0-3) <= 1.5\ngini = 0.5\nsamples = 4\nvalue = [2, 2]\nclass = F", fillcolor="#e5813900"] ;
151 -> 152 ;
153 [label="gini = 0.0\nsamples = 1\nvalue = [1, 0]\nclass = F", fillcolor="#e58139ff"] ;
152 -> 153 ;
154 [label="TimeSlot(0-3) <= 2.5\ngini = 0.444\nsamples = 3\nvalue = [1, 2]\nclass = M", fillcolor="#399de57f"] ;
152 -> 154 ;
155 [label="gini = 0.0\nsamples = 2\nvalue = [0, 2]\nclass = M", fillcolor="#399de5ff"] ;
154 -> 155 ;
156 [label="gini = 0.0\nsamples = 1\nvalue = [1, 0]\nclass = F", fillcolor="#e58139ff"] ;
154 -> 156 ;
157 [label="gini = 0.0\nsamples = 3\nvalue = [0, 3]\nclass = M", fillcolor="#399de5ff"] ;
151 -> 157 ;
158 [label="TimeSlot(16-20) <= 3.5\ngini = 0.472\nsamples = 21\nvalue = [8, 13]\nclass = M", fillcolor="#399de562"] ;
138 -> 158 ;
159 [label="TimeSlot(0-3) <= 1.5\ngini = 0.494\nsamples = 18\nvalue = [8, 10]\nclass = M", fillcolor="#399de533"] ;
158 -> 159 ;
160 [label="TimeSlot(16-20) <= 0.5\ngini = 0.32\nsamples = 5\nvalue = [1, 4]\nclass = M", fillcolor="#399de5bf"] ;
159 -> 160 ;
161 [label="TimeSlot(12-13) <= 0.5\ngini = 0.444\nsamples = 3\nvalue = [1, 2]\nclass = M", fillcolor="#399de57f"] ;
160 -> 161 ;
162 [label="Age <= 1.5\ngini = 0.5\nsamples = 2\nvalue = [1, 1]\nclass = F", fillcolor="#e5813900"] ;
161 -> 162 ;
163 [label="gini = 0.0\nsamples = 1\nvalue = [0, 1]\nclass = M", fillcolor="#399de5ff"] ;
162 -> 163 ;
164 [label="gini = 0.0\nsamples = 1\nvalue = [1, 0]\nclass = F", fillcolor="#e58139ff"] ;
162 -> 164 ;
165 [label="gini = 0.0\nsamples = 1\nvalue = [0, 1]\nclass = M", fillcolor="#399de5ff"] ;
161 -> 165 ;
166 [label="gini = 0.0\nsamples = 2\nvalue = [0, 2]\nclass = M", fillcolor="#399de5ff"] ;
160 -> 166 ;
167 [label="TimeSlot(0-3) <= 2.5\ngini = 0.497\nsamples = 13\nvalue = [7, 6]\nclass = F", fillcolor="#e5813924"] ;
159 -> 167 ;
168 [label="TimeSlot(16-20) <= 2.5\ngini = 0.375\nsamples = 8\nvalue = [6, 2]\nclass = F", fillcolor="#e58139aa"] ;
167 -> 168 ;
169 [label="gini = 0.0\nsamples = 5\nvalue = [5, 0]\nclass = F", fillcolor="#e58139ff"] ;
168 -> 169 ;
170 [label="TimeSlot(14-15) <= 0.5\ngini = 0.444\nsamples = 3\nvalue = [1, 2]\nclass = M", fillcolor="#399de57f"] ;
168 -> 170 ;
171 [label="Age <= 0.5\ngini = 0.5\nsamples = 2\nvalue = [1, 1]\nclass = F", fillcolor="#e5813900"] ;
170 -> 171 ;
172 [label="gini = 0.0\nsamples = 1\nvalue = [0, 1]\nclass = M", fillcolor="#399de5ff"] ;
171 -> 172 ;
173 [label="gini = 0.0\nsamples = 1\nvalue = [1, 0]\nclass = F", fillcolor="#e58139ff"] ;
171 -> 173 ;
174 [label="gini = 0.0\nsamples = 1\nvalue = [0, 1]\nclass = M", fillcolor="#399de5ff"] ;
170 -> 174 ;
175 [label="TimeSlot(8-11) <= 2.5\ngini = 0.32\nsamples = 5\nvalue = [1, 4]\nclass = M", fillcolor="#399de5bf"] ;
167 -> 175 ;
176 [label="TimeSlot(14-15) <= 0.5\ngini = 0.5\nsamples = 2\nvalue = [1, 1]\nclass = F", fillcolor="#e5813900"] ;
175 -> 176 ;
177 [label="gini = 0.0\nsamples = 1\nvalue = [1, 0]\nclass = F", fillcolor="#e58139ff"] ;
176 -> 177 ;
178 [label="gini = 0.0\nsamples = 1\nvalue = [0, 1]\nclass = M", fillcolor="#399de5ff"] ;
176 -> 178 ;
179 [label="gini = 0.0\nsamples = 3\nvalue = [0, 3]\nclass = M", fillcolor="#399de5ff"] ;
175 -> 179 ;
180 [label="gini = 0.0\nsamples = 3\nvalue = [0, 3]\nclass = M", fillcolor="#399de5ff"] ;
158 -> 180 ;
181 [label="TimeSlot(8-11) <= 2.5\ngini = 0.447\nsamples = 95\nvalue = [32, 63]\nclass = M", fillcolor="#399de57d"] ;
131 -> 181 ;
182 [label="TimeSlot(12-13) <= 0.5\ngini = 0.41\nsamples = 66\nvalue = [19, 47]\nclass = M", fillcolor="#399de598"] ;
181 -> 182 ;
183 [label="TimeSlot(0-3) <= 2.5\ngini = 0.467\nsamples = 35\nvalue = [13, 22]\nclass = M", fillcolor="#399de568"] ;
182 -> 183 ;
184 [label="TimeSlot(14-15) <= 0.5\ngini = 0.34\nsamples = 23\nvalue = [5, 18]\nclass = M", fillcolor="#399de5b8"] ;
183 -> 184 ;
185 [label="gini = 0.0\nsamples = 12\nvalue = [0, 12]\nclass = M", fillcolor="#399de5ff"] ;
184 -> 185 ;
186 [label="TimeSlot(0-3) <= 1.5\ngini = 0.496\nsamples = 11\nvalue = [5, 6]\nclass = M", fillcolor="#399de52a"] ;
184 -> 186 ;
187 [label="gini = 0.0\nsamples = 2\nvalue = [2, 0]\nclass = F", fillcolor="#e58139ff"] ;
186 -> 187 ;
188 [label="Age <= 3.5\ngini = 0.444\nsamples = 9\nvalue = [3, 6]\nclass = M", fillcolor="#399de57f"] ;
186 -> 188 ;
189 [label="gini = 0.0\nsamples = 3\nvalue = [0, 3]\nclass = M", fillcolor="#399de5ff"] ;
188 -> 189 ;
190 [label="Age <= 4.5\ngini = 0.5\nsamples = 6\nvalue = [3, 3]\nclass = F", fillcolor="#e5813900"] ;
188 -> 190 ;
191 [label="TimeSlot(8-11) <= 0.5\ngini = 0.375\nsamples = 4\nvalue = [3, 1]\nclass = F", fillcolor="#e58139aa"] ;
190 -> 191 ;
192 [label="gini = 0.0\nsamples = 1\nvalue = [0, 1]\nclass = M", fillcolor="#399de5ff"] ;
191 -> 192 ;
193 [label="gini = 0.0\nsamples = 3\nvalue = [3, 0]\nclass = F", fillcolor="#e58139ff"] ;
191 -> 193 ;
194 [label="gini = 0.0\nsamples = 2\nvalue = [0, 2]\nclass = M", fillcolor="#399de5ff"] ;
190 -> 194 ;
195 [label="TimeSlot(8-11) <= 0.5\ngini = 0.444\nsamples = 12\nvalue = [8, 4]\nclass = F", fillcolor="#e581397f"] ;
183 -> 195 ;
196 [label="gini = 0.0\nsamples = 4\nvalue = [4, 0]\nclass = F", fillcolor="#e58139ff"] ;
195 -> 196 ;
197 [label="TimeSlot(16-20) <= 2.5\ngini = 0.5\nsamples = 8\nvalue = [4, 4]\nclass = F", fillcolor="#e5813900"] ;
195 -> 197 ;
198 [label="TimeSlot(14-15) <= 0.5\ngini = 0.444\nsamples = 6\nvalue = [4, 2]\nclass = F", fillcolor="#e581397f"] ;
197 -> 198 ;
199 [label="Age <= 4.5\ngini = 0.444\nsamples = 3\nvalue = [1, 2]\nclass = M", fillcolor="#399de57f"] ;
198 -> 199 ;
200 [label="gini = 0.0\nsamples = 1\nvalue = [1, 0]\nclass = F", fillcolor="#e58139ff"] ;
199 -> 200 ;
201 [label="gini = 0.0\nsamples = 2\nvalue = [0, 2]\nclass = M", fillcolor="#399de5ff"] ;
199 -> 201 ;
202 [label="gini = 0.0\nsamples = 3\nvalue = [3, 0]\nclass = F", fillcolor="#e58139ff"] ;
198 -> 202 ;
203 [label="gini = 0.0\nsamples = 2\nvalue = [0, 2]\nclass = M", fillcolor="#399de5ff"] ;
197 -> 203 ;
204 [label="TimeSlot(14-15) <= 0.5\ngini = 0.312\nsamples = 31\nvalue = [6, 25]\nclass = M", fillcolor="#399de5c2"] ;
182 -> 204 ;
205 [label="TimeSlot(8-11) <= 0.5\ngini = 0.459\nsamples = 14\nvalue = [5, 9]\nclass = M", fillcolor="#399de571"] ;
204 -> 205 ;
206 [label="gini = 0.0\nsamples = 6\nvalue = [0, 6]\nclass = M", fillcolor="#399de5ff"] ;
205 -> 206 ;
207 [label="Age <= 5.5\ngini = 0.469\nsamples = 8\nvalue = [5, 3]\nclass = F", fillcolor="#e5813966"] ;
205 -> 207 ;
208 [label="Age <= 4.5\ngini = 0.5\nsamples = 6\nvalue = [3, 3]\nclass = F", fillcolor="#e5813900"] ;
207 -> 208 ;
209 [label="TimeSlot(16-20) <= 2.5\ngini = 0.48\nsamples = 5\nvalue = [3, 2]\nclass = F", fillcolor="#e5813955"] ;
208 -> 209 ;
210 [label="TimeSlot(4-7) <= 1.5\ngini = 0.444\nsamples = 3\nvalue = [1, 2]\nclass = M", fillcolor="#399de57f"] ;
209 -> 210 ;
211 [label="gini = 0.0\nsamples = 1\nvalue = [1, 0]\nclass = F", fillcolor="#e58139ff"] ;
210 -> 211 ;
212 [label="gini = 0.0\nsamples = 2\nvalue = [0, 2]\nclass = M", fillcolor="#399de5ff"] ;
210 -> 212 ;
213 [label="gini = 0.0\nsamples = 2\nvalue = [2, 0]\nclass = F", fillcolor="#e58139ff"] ;
209 -> 213 ;
214 [label="gini = 0.0\nsamples = 1\nvalue = [0, 1]\nclass = M", fillcolor="#399de5ff"] ;
208 -> 214 ;
215 [label="gini = 0.0\nsamples = 2\nvalue = [2, 0]\nclass = F", fillcolor="#e58139ff"] ;
207 -> 215 ;
216 [label="TimeSlot(8-11) <= 0.5\ngini = 0.111\nsamples = 17\nvalue = [1, 16]\nclass = M", fillcolor="#399de5ef"] ;
204 -> 216 ;
217 [label="TimeSlot(0-3) <= 2.0\ngini = 0.444\nsamples = 3\nvalue = [1, 2]\nclass = M", fillcolor="#399de57f"] ;
216 -> 217 ;
218 [label="gini = 0.0\nsamples = 1\nvalue = [0, 1]\nclass = M", fillcolor="#399de5ff"] ;
217 -> 218 ;
219 [label="TimeSlot(4-7) <= 1.5\ngini = 0.5\nsamples = 2\nvalue = [1, 1]\nclass = F", fillcolor="#e5813900"] ;
217 -> 219 ;
220 [label="gini = 0.0\nsamples = 1\nvalue = [0, 1]\nclass = M", fillcolor="#399de5ff"] ;
219 -> 220 ;
221 [label="gini = 0.0\nsamples = 1\nvalue = [1, 0]\nclass = F", fillcolor="#e58139ff"] ;
219 -> 221 ;
222 [label="gini = 0.0\nsamples = 14\nvalue = [0, 14]\nclass = M", fillcolor="#399de5ff"] ;
216 -> 222 ;
223 [label="TimeSlot(12-13) <= 0.5\ngini = 0.495\nsamples = 29\nvalue = [13, 16]\nclass = M", fillcolor="#399de530"] ;
181 -> 223 ;
224 [label="Age <= 4.5\ngini = 0.415\nsamples = 17\nvalue = [5, 12]\nclass = M", fillcolor="#399de595"] ;
223 -> 224 ;
225 [label="TimeSlot(16-20) <= 1.0\ngini = 0.49\nsamples = 7\nvalue = [3, 4]\nclass = M", fillcolor="#399de540"] ;
224 -> 225 ;
226 [label="gini = 0.0\nsamples = 2\nvalue = [2, 0]\nclass = F", fillcolor="#e58139ff"] ;
225 -> 226 ;
227 [label="TimeSlot(0-3) <= 2.5\ngini = 0.32\nsamples = 5\nvalue = [1, 4]\nclass = M", fillcolor="#399de5bf"] ;
225 -> 227 ;
228 [label="gini = 0.0\nsamples = 2\nvalue = [0, 2]\nclass = M", fillcolor="#399de5ff"] ;
227 -> 228 ;
229 [label="TimeSlot(4-7) <= 1.5\ngini = 0.444\nsamples = 3\nvalue = [1, 2]\nclass = M", fillcolor="#399de57f"] ;
227 -> 229 ;
230 [label="gini = 0.0\nsamples = 1\nvalue = [1, 0]\nclass = F", fillcolor="#e58139ff"] ;
229 -> 230 ;
231 [label="gini = 0.0\nsamples = 2\nvalue = [0, 2]\nclass = M", fillcolor="#399de5ff"] ;
229 -> 231 ;
232 [label="TimeSlot(16-20) <= 0.5\ngini = 0.32\nsamples = 10\nvalue = [2, 8]\nclass = M", fillcolor="#399de5bf"] ;
224 -> 232 ;
233 [label="gini = 0.0\nsamples = 3\nvalue = [0, 3]\nclass = M", fillcolor="#399de5ff"] ;
232 -> 233 ;
234 [label="TimeSlot(0-3) <= 1.5\ngini = 0.408\nsamples = 7\nvalue = [2, 5]\nclass = M", fillcolor="#399de599"] ;
232 -> 234 ;
235 [label="gini = 0.0\nsamples = 2\nvalue = [0, 2]\nclass = M", fillcolor="#399de5ff"] ;
234 -> 235 ;
236 [label="TimeSlot(14-15) <= 0.5\ngini = 0.48\nsamples = 5\nvalue = [2, 3]\nclass = M", fillcolor="#399de555"] ;
234 -> 236 ;
237 [label="TimeSlot(16-20) <= 3.0\ngini = 0.5\nsamples = 4\nvalue = [2, 2]\nclass = F", fillcolor="#e5813900"] ;
236 -> 237 ;
238 [label="TimeSlot(4-7) <= 1.5\ngini = 0.444\nsamples = 3\nvalue = [2, 1]\nclass = F", fillcolor="#e581397f"] ;
237 -> 238 ;
239 [label="gini = 0.0\nsamples = 1\nvalue = [1, 0]\nclass = F", fillcolor="#e58139ff"] ;
238 -> 239 ;
240 [label="gini = 0.5\nsamples = 2\nvalue = [1, 1]\nclass = F", fillcolor="#e5813900"] ;
238 -> 240 ;
241 [label="gini = 0.0\nsamples = 1\nvalue = [0, 1]\nclass = M", fillcolor="#399de5ff"] ;
237 -> 241 ;
242 [label="gini = 0.0\nsamples = 1\nvalue = [0, 1]\nclass = M", fillcolor="#399de5ff"] ;
236 -> 242 ;
243 [label="TimeSlot(16-20) <= 1.5\ngini = 0.444\nsamples = 12\nvalue = [8, 4]\nclass = F", fillcolor="#e581397f"] ;
223 -> 243 ;
244 [label="Age <= 4.5\ngini = 0.444\nsamples = 6\nvalue = [2, 4]\nclass = M", fillcolor="#399de57f"] ;
243 -> 244 ;
245 [label="gini = 0.0\nsamples = 3\nvalue = [0, 3]\nclass = M", fillcolor="#399de5ff"] ;
244 -> 245 ;
246 [label="TimeSlot(0-3) <= 1.5\ngini = 0.444\nsamples = 3\nvalue = [2, 1]\nclass = F", fillcolor="#e581397f"] ;
244 -> 246 ;
247 [label="gini = 0.0\nsamples = 2\nvalue = [2, 0]\nclass = F", fillcolor="#e58139ff"] ;
246 -> 247 ;
248 [label="gini = 0.0\nsamples = 1\nvalue = [0, 1]\nclass = M", fillcolor="#399de5ff"] ;
246 -> 248 ;
249 [label="gini = 0.0\nsamples = 6\nvalue = [6, 0]\nclass = F", fillcolor="#e58139ff"] ;
243 -> 249 ;
250 [label="TimeSlot(16-20) <= 3.5\ngini = 0.476\nsamples = 118\nvalue = [46, 72]\nclass = M", fillcolor="#399de55c"] ;
2 -> 250 ;
251 [label="TimeSlot(12-13) <= 0.5\ngini = 0.491\nsamples = 95\nvalue = [41, 54]\nclass = M", fillcolor="#399de53d"] ;
250 -> 251 ;
252 [label="Age <= 3.5\ngini = 0.457\nsamples = 48\nvalue = [17, 31]\nclass = M", fillcolor="#399de573"] ;
251 -> 252 ;
253 [label="TimeSlot(0-3) <= 1.5\ngini = 0.492\nsamples = 32\nvalue = [14, 18]\nclass = M", fillcolor="#399de539"] ;
252 -> 253 ;
254 [label="TimeSlot(16-20) <= 0.5\ngini = 0.49\nsamples = 14\nvalue = [8, 6]\nclass = F", fillcolor="#e5813940"] ;
253 -> 254 ;
255 [label="TimeSlot(8-11) <= 1.0\ngini = 0.375\nsamples = 4\nvalue = [1, 3]\nclass = M", fillcolor="#399de5aa"] ;
254 -> 255 ;
256 [label="gini = 0.0\nsamples = 1\nvalue = [1, 0]\nclass = F", fillcolor="#e58139ff"] ;
255 -> 256 ;
257 [label="gini = 0.0\nsamples = 3\nvalue = [0, 3]\nclass = M", fillcolor="#399de5ff"] ;
255 -> 257 ;
258 [label="TimeSlot(16-20) <= 1.5\ngini = 0.42\nsamples = 10\nvalue = [7, 3]\nclass = F", fillcolor="#e5813992"] ;
254 -> 258 ;
259 [label="gini = 0.0\nsamples = 4\nvalue = [4, 0]\nclass = F", fillcolor="#e58139ff"] ;
258 -> 259 ;
260 [label="TimeSlot(21-23) <= 0.5\ngini = 0.5\nsamples = 6\nvalue = [3, 3]\nclass = F", fillcolor="#e5813900"] ;
258 -> 260 ;
261 [label="gini = 0.0\nsamples = 2\nvalue = [2, 0]\nclass = F", fillcolor="#e58139ff"] ;
260 -> 261 ;
262 [label="TimeSlot(0-3) <= 0.5\ngini = 0.375\nsamples = 4\nvalue = [1, 3]\nclass = M", fillcolor="#399de5aa"] ;
260 -> 262 ;
263 [label="gini = 0.0\nsamples = 1\nvalue = [1, 0]\nclass = F", fillcolor="#e58139ff"] ;
262 -> 263 ;
264 [label="gini = 0.0\nsamples = 3\nvalue = [0, 3]\nclass = M", fillcolor="#399de5ff"] ;
262 -> 264 ;
265 [label="TimeSlot(16-20) <= 0.5\ngini = 0.444\nsamples = 18\nvalue = [6, 12]\nclass = M", fillcolor="#399de57f"] ;
253 -> 265 ;
266 [label="TimeSlot(0-3) <= 2.5\ngini = 0.48\nsamples = 5\nvalue = [3, 2]\nclass = F", fillcolor="#e5813955"] ;
265 -> 266 ;
267 [label="TimeSlot(8-11) <= 1.5\ngini = 0.444\nsamples = 3\nvalue = [1, 2]\nclass = M", fillcolor="#399de57f"] ;
266 -> 267 ;
268 [label="gini = 0.0\nsamples = 1\nvalue = [1, 0]\nclass = F", fillcolor="#e58139ff"] ;
267 -> 268 ;
269 [label="gini = 0.0\nsamples = 2\nvalue = [0, 2]\nclass = M", fillcolor="#399de5ff"] ;
267 -> 269 ;
270 [label="gini = 0.0\nsamples = 2\nvalue = [2, 0]\nclass = F", fillcolor="#e58139ff"] ;
266 -> 270 ;
271 [label="TimeSlot(8-11) <= 2.5\ngini = 0.355\nsamples = 13\nvalue = [3, 10]\nclass = M", fillcolor="#399de5b3"] ;
265 -> 271 ;
272 [label="gini = 0.0\nsamples = 8\nvalue = [0, 8]\nclass = M", fillcolor="#399de5ff"] ;
271 -> 272 ;
273 [label="TimeSlot(21-23) <= 0.5\ngini = 0.48\nsamples = 5\nvalue = [3, 2]\nclass = F", fillcolor="#e5813955"] ;
271 -> 273 ;
274 [label="Age <= 0.5\ngini = 0.5\nsamples = 4\nvalue = [2, 2]\nclass = F", fillcolor="#e5813900"] ;
273 -> 274 ;
275 [label="TimeSlot(16-20) <= 1.5\ngini = 0.444\nsamples = 3\nvalue = [2, 1]\nclass = F", fillcolor="#e581397f"] ;
274 -> 275 ;
276 [label="gini = 0.0\nsamples = 1\nvalue = [0, 1]\nclass = M", fillcolor="#399de5ff"] ;
275 -> 276 ;
277 [label="gini = 0.0\nsamples = 2\nvalue = [2, 0]\nclass = F", fillcolor="#e58139ff"] ;
275 -> 277 ;
278 [label="gini = 0.0\nsamples = 1\nvalue = [0, 1]\nclass = M", fillcolor="#399de5ff"] ;
274 -> 278 ;
279 [label="gini = 0.0\nsamples = 1\nvalue = [1, 0]\nclass = F", fillcolor="#e58139ff"] ;
273 -> 279 ;
280 [label="TimeSlot(8-11) <= 1.5\ngini = 0.305\nsamples = 16\nvalue = [3, 13]\nclass = M", fillcolor="#399de5c4"] ;
252 -> 280 ;
281 [label="TimeSlot(21-23) <= 0.5\ngini = 0.48\nsamples = 5\nvalue = [2, 3]\nclass = M", fillcolor="#399de555"] ;
280 -> 281 ;
282 [label="gini = 0.0\nsamples = 2\nvalue = [2, 0]\nclass = F", fillcolor="#e58139ff"] ;
281 -> 282 ;
283 [label="gini = 0.0\nsamples = 3\nvalue = [0, 3]\nclass = M", fillcolor="#399de5ff"] ;
281 -> 283 ;
284 [label="Age <= 5.5\ngini = 0.165\nsamples = 11\nvalue = [1, 10]\nclass = M", fillcolor="#399de5e6"] ;
280 -> 284 ;
285 [label="gini = 0.0\nsamples = 7\nvalue = [0, 7]\nclass = M", fillcolor="#399de5ff"] ;
284 -> 285 ;
286 [label="TimeSlot(14-15) <= 0.5\ngini = 0.375\nsamples = 4\nvalue = [1, 3]\nclass = M", fillcolor="#399de5aa"] ;
284 -> 286 ;
287 [label="gini = 0.0\nsamples = 2\nvalue = [0, 2]\nclass = M", fillcolor="#399de5ff"] ;
286 -> 287 ;
288 [label="TimeSlot(21-23) <= 0.5\ngini = 0.5\nsamples = 2\nvalue = [1, 1]\nclass = F", fillcolor="#e5813900"] ;
286 -> 288 ;
289 [label="gini = 0.0\nsamples = 1\nvalue = [0, 1]\nclass = M", fillcolor="#399de5ff"] ;
288 -> 289 ;
290 [label="gini = 0.0\nsamples = 1\nvalue = [1, 0]\nclass = F", fillcolor="#e58139ff"] ;
288 -> 290 ;
291 [label="TimeSlot(8-11) <= 1.5\ngini = 0.5\nsamples = 47\nvalue = [24, 23]\nclass = F", fillcolor="#e581390b"] ;
251 -> 291 ;
292 [label="TimeSlot(8-11) <= 0.5\ngini = 0.477\nsamples = 28\nvalue = [11, 17]\nclass = M", fillcolor="#399de55a"] ;
291 -> 292 ;
293 [label="TimeSlot(16-20) <= 1.5\ngini = 0.426\nsamples = 13\nvalue = [9, 4]\nclass = F", fillcolor="#e581398e"] ;
292 -> 293 ;
294 [label="TimeSlot(16-20) <= 0.5\ngini = 0.5\nsamples = 8\nvalue = [4, 4]\nclass = F", fillcolor="#e5813900"] ;
293 -> 294 ;
295 [label="gini = 0.0\nsamples = 2\nvalue = [2, 0]\nclass = F", fillcolor="#e58139ff"] ;
294 -> 295 ;
296 [label="Age <= 0.5\ngini = 0.444\nsamples = 6\nvalue = [2, 4]\nclass = M", fillcolor="#399de57f"] ;
294 -> 296 ;
297 [label="gini = 0.0\nsamples = 2\nvalue = [0, 2]\nclass = M", fillcolor="#399de5ff"] ;
296 -> 297 ;
298 [label="Age <= 2.0\ngini = 0.5\nsamples = 4\nvalue = [2, 2]\nclass = F", fillcolor="#e5813900"] ;
296 -> 298 ;
299 [label="gini = 0.0\nsamples = 1\nvalue = [1, 0]\nclass = F", fillcolor="#e58139ff"] ;
298 -> 299 ;
300 [label="TimeSlot(14-15) <= 0.5\ngini = 0.444\nsamples = 3\nvalue = [1, 2]\nclass = M", fillcolor="#399de57f"] ;
298 -> 300 ;
301 [label="gini = 0.0\nsamples = 1\nvalue = [1, 0]\nclass = F", fillcolor="#e58139ff"] ;
300 -> 301 ;
302 [label="gini = 0.0\nsamples = 2\nvalue = [0, 2]\nclass = M", fillcolor="#399de5ff"] ;
300 -> 302 ;
303 [label="gini = 0.0\nsamples = 5\nvalue = [5, 0]\nclass = F", fillcolor="#e58139ff"] ;
293 -> 303 ;
304 [label="Age <= 5.5\ngini = 0.231\nsamples = 15\nvalue = [2, 13]\nclass = M", fillcolor="#399de5d8"] ;
292 -> 304 ;
305 [label="Age <= 4.0\ngini = 0.142\nsamples = 13\nvalue = [1, 12]\nclass = M", fillcolor="#399de5ea"] ;
304 -> 305 ;
306 [label="gini = 0.0\nsamples = 8\nvalue = [0, 8]\nclass = M", fillcolor="#399de5ff"] ;
305 -> 306 ;
307 [label="TimeSlot(0-3) <= 0.5\ngini = 0.32\nsamples = 5\nvalue = [1, 4]\nclass = M", fillcolor="#399de5bf"] ;
305 -> 307 ;
308 [label="gini = 0.0\nsamples = 3\nvalue = [0, 3]\nclass = M", fillcolor="#399de5ff"] ;
307 -> 308 ;
309 [label="TimeSlot(16-20) <= 0.5\ngini = 0.5\nsamples = 2\nvalue = [1, 1]\nclass = F", fillcolor="#e5813900"] ;
307 -> 309 ;
310 [label="gini = 0.0\nsamples = 1\nvalue = [0, 1]\nclass = M", fillcolor="#399de5ff"] ;
309 -> 310 ;
311 [label="gini = 0.0\nsamples = 1\nvalue = [1, 0]\nclass = F", fillcolor="#e58139ff"] ;
309 -> 311 ;
312 [label="TimeSlot(0-3) <= 2.0\ngini = 0.5\nsamples = 2\nvalue = [1, 1]\nclass = F", fillcolor="#e5813900"] ;
304 -> 312 ;
313 [label="gini = 0.0\nsamples = 1\nvalue = [1, 0]\nclass = F", fillcolor="#e58139ff"] ;
312 -> 313 ;
314 [label="gini = 0.0\nsamples = 1\nvalue = [0, 1]\nclass = M", fillcolor="#399de5ff"] ;
312 -> 314 ;
315 [label="TimeSlot(16-20) <= 0.5\ngini = 0.432\nsamples = 19\nvalue = [13, 6]\nclass = F", fillcolor="#e5813989"] ;
291 -> 315 ;
316 [label="TimeSlot(21-23) <= 0.5\ngini = 0.375\nsamples = 4\nvalue = [1, 3]\nclass = M", fillcolor="#399de5aa"] ;
315 -> 316 ;
317 [label="gini = 0.0\nsamples = 3\nvalue = [0, 3]\nclass = M", fillcolor="#399de5ff"] ;
316 -> 317 ;
318 [label="gini = 0.0\nsamples = 1\nvalue = [1, 0]\nclass = F", fillcolor="#e58139ff"] ;
316 -> 318 ;
319 [label="TimeSlot(21-23) <= 0.5\ngini = 0.32\nsamples = 15\nvalue = [12, 3]\nclass = F", fillcolor="#e58139bf"] ;
315 -> 319 ;
320 [label="gini = 0.0\nsamples = 7\nvalue = [7, 0]\nclass = F", fillcolor="#e58139ff"] ;
319 -> 320 ;
321 [label="TimeSlot(16-20) <= 2.5\ngini = 0.469\nsamples = 8\nvalue = [5, 3]\nclass = F", fillcolor="#e5813966"] ;
319 -> 321 ;
322 [label="TimeSlot(0-3) <= 0.5\ngini = 0.278\nsamples = 6\nvalue = [5, 1]\nclass = F", fillcolor="#e58139cc"] ;
321 -> 322 ;
323 [label="TimeSlot(14-15) <= 0.5\ngini = 0.444\nsamples = 3\nvalue = [2, 1]\nclass = F", fillcolor="#e581397f"] ;
322 -> 323 ;
324 [label="gini = 0.0\nsamples = 1\nvalue = [1, 0]\nclass = F", fillcolor="#e58139ff"] ;
323 -> 324 ;
325 [label="Age <= 0.5\ngini = 0.5\nsamples = 2\nvalue = [1, 1]\nclass = F", fillcolor="#e5813900"] ;
323 -> 325 ;
326 [label="gini = 0.0\nsamples = 1\nvalue = [1, 0]\nclass = F", fillcolor="#e58139ff"] ;
325 -> 326 ;
327 [label="gini = 0.0\nsamples = 1\nvalue = [0, 1]\nclass = M", fillcolor="#399de5ff"] ;
325 -> 327 ;
328 [label="gini = 0.0\nsamples = 3\nvalue = [3, 0]\nclass = F", fillcolor="#e58139ff"] ;
322 -> 328 ;
329 [label="gini = 0.0\nsamples = 2\nvalue = [0, 2]\nclass = M", fillcolor="#399de5ff"] ;
321 -> 329 ;
330 [label="Age <= 0.5\ngini = 0.34\nsamples = 23\nvalue = [5, 18]\nclass = M", fillcolor="#399de5b8"] ;
250 -> 330 ;
331 [label="TimeSlot(0-3) <= 1.5\ngini = 0.48\nsamples = 5\nvalue = [3, 2]\nclass = F", fillcolor="#e5813955"] ;
330 -> 331 ;
332 [label="gini = 0.0\nsamples = 2\nvalue = [2, 0]\nclass = F", fillcolor="#e58139ff"] ;
331 -> 332 ;
333 [label="TimeSlot(21-23) <= 0.5\ngini = 0.444\nsamples = 3\nvalue = [1, 2]\nclass = M", fillcolor="#399de57f"] ;
331 -> 333 ;
334 [label="gini = 0.0\nsamples = 1\nvalue = [1, 0]\nclass = F", fillcolor="#e58139ff"] ;
333 -> 334 ;
335 [label="gini = 0.0\nsamples = 2\nvalue = [0, 2]\nclass = M", fillcolor="#399de5ff"] ;
333 -> 335 ;
336 [label="Age <= 5.5\ngini = 0.198\nsamples = 18\nvalue = [2, 16]\nclass = M", fillcolor="#399de5df"] ;
330 -> 336 ;
337 [label="Age <= 1.5\ngini = 0.117\nsamples = 16\nvalue = [1, 15]\nclass = M", fillcolor="#399de5ee"] ;
336 -> 337 ;
338 [label="TimeSlot(12-13) <= 0.5\ngini = 0.375\nsamples = 4\nvalue = [1, 3]\nclass = M", fillcolor="#399de5aa"] ;
337 -> 338 ;
339 [label="TimeSlot(14-15) <= 0.5\ngini = 0.5\nsamples = 2\nvalue = [1, 1]\nclass = F", fillcolor="#e5813900"] ;
338 -> 339 ;
340 [label="gini = 0.0\nsamples = 1\nvalue = [1, 0]\nclass = F", fillcolor="#e58139ff"] ;
339 -> 340 ;
341 [label="gini = 0.0\nsamples = 1\nvalue = [0, 1]\nclass = M", fillcolor="#399de5ff"] ;
339 -> 341 ;
342 [label="gini = 0.0\nsamples = 2\nvalue = [0, 2]\nclass = M", fillcolor="#399de5ff"] ;
338 -> 342 ;
343 [label="gini = 0.0\nsamples = 12\nvalue = [0, 12]\nclass = M", fillcolor="#399de5ff"] ;
337 -> 343 ;
344 [label="TimeSlot(21-23) <= 0.5\ngini = 0.5\nsamples = 2\nvalue = [1, 1]\nclass = F", fillcolor="#e5813900"] ;
336 -> 344 ;
345 [label="gini = 0.0\nsamples = 1\nvalue = [0, 1]\nclass = M", fillcolor="#399de5ff"] ;
344 -> 345 ;
346 [label="gini = 0.0\nsamples = 1\nvalue = [1, 0]\nclass = F", fillcolor="#e58139ff"] ;
344 -> 346 ;
347 [label="Age <= 7.5\ngini = 0.498\nsamples = 1822\nvalue = [973, 849]\nclass = F", fillcolor="#e5813920"] ;
1 -> 347 ;
348 [label="TimeSlot(0-3) <= 2.5\ngini = 0.47\nsamples = 69\nvalue = [43, 26]\nclass = F", fillcolor="#e5813965"] ;
347 -> 348 ;
349 [label="TimeSlot(4-7) <= 0.5\ngini = 0.413\nsamples = 48\nvalue = [34, 14]\nclass = F", fillcolor="#e5813996"] ;
348 -> 349 ;
350 [label="gini = 0.0\nsamples = 8\nvalue = [8, 0]\nclass = F", fillcolor="#e58139ff"] ;
349 -> 350 ;
351 [label="TimeSlot(12-13) <= 0.5\ngini = 0.455\nsamples = 40\nvalue = [26, 14]\nclass = F", fillcolor="#e5813976"] ;
349 -> 351 ;
352 [label="TimeSlot(8-11) <= 1.5\ngini = 0.499\nsamples = 19\nvalue = [10, 9]\nclass = F", fillcolor="#e5813919"] ;
351 -> 352 ;
353 [label="TimeSlot(4-7) <= 1.5\ngini = 0.444\nsamples = 9\nvalue = [6, 3]\nclass = F", fillcolor="#e581397f"] ;
352 -> 353 ;
354 [label="gini = 0.0\nsamples = 1\nvalue = [0, 1]\nclass = M", fillcolor="#399de5ff"] ;
353 -> 354 ;
355 [label="TimeSlot(0-3) <= 1.5\ngini = 0.375\nsamples = 8\nvalue = [6, 2]\nclass = F", fillcolor="#e58139aa"] ;
353 -> 355 ;
356 [label="gini = 0.0\nsamples = 3\nvalue = [3, 0]\nclass = F", fillcolor="#e58139ff"] ;
355 -> 356 ;
357 [label="TimeSlot(16-20) <= 0.5\ngini = 0.48\nsamples = 5\nvalue = [3, 2]\nclass = F", fillcolor="#e5813955"] ;
355 -> 357 ;
358 [label="gini = 0.0\nsamples = 1\nvalue = [0, 1]\nclass = M", fillcolor="#399de5ff"] ;
357 -> 358 ;
359 [label="TimeSlot(16-20) <= 2.5\ngini = 0.375\nsamples = 4\nvalue = [3, 1]\nclass = F", fillcolor="#e58139aa"] ;
357 -> 359 ;
360 [label="gini = 0.0\nsamples = 2\nvalue = [2, 0]\nclass = F", fillcolor="#e58139ff"] ;
359 -> 360 ;
361 [label="TimeSlot(21-23) <= 0.5\ngini = 0.5\nsamples = 2\nvalue = [1, 1]\nclass = F", fillcolor="#e5813900"] ;
359 -> 361 ;
362 [label="gini = 0.0\nsamples = 1\nvalue = [0, 1]\nclass = M", fillcolor="#399de5ff"] ;
361 -> 362 ;
363 [label="gini = 0.0\nsamples = 1\nvalue = [1, 0]\nclass = F", fillcolor="#e58139ff"] ;
361 -> 363 ;
364 [label="TimeSlot(4-7) <= 1.5\ngini = 0.48\nsamples = 10\nvalue = [4, 6]\nclass = M", fillcolor="#399de555"] ;
352 -> 364 ;
365 [label="gini = 0.0\nsamples = 1\nvalue = [1, 0]\nclass = F", fillcolor="#e58139ff"] ;
364 -> 365 ;
366 [label="TimeSlot(16-20) <= 2.5\ngini = 0.444\nsamples = 9\nvalue = [3, 6]\nclass = M", fillcolor="#399de57f"] ;
364 -> 366 ;
367 [label="TimeSlot(0-3) <= 1.5\ngini = 0.5\nsamples = 6\nvalue = [3, 3]\nclass = F", fillcolor="#e5813900"] ;
366 -> 367 ;
368 [label="TimeSlot(8-11) <= 2.5\ngini = 0.444\nsamples = 3\nvalue = [2, 1]\nclass = F", fillcolor="#e581397f"] ;
367 -> 368 ;
369 [label="gini = 0.0\nsamples = 2\nvalue = [2, 0]\nclass = F", fillcolor="#e58139ff"] ;
368 -> 369 ;
370 [label="gini = 0.0\nsamples = 1\nvalue = [0, 1]\nclass = M", fillcolor="#399de5ff"] ;
368 -> 370 ;
371 [label="TimeSlot(4-7) <= 2.5\ngini = 0.444\nsamples = 3\nvalue = [1, 2]\nclass = M", fillcolor="#399de57f"] ;
367 -> 371 ;
372 [label="TimeSlot(16-20) <= 1.0\ngini = 0.5\nsamples = 2\nvalue = [1, 1]\nclass = F", fillcolor="#e5813900"] ;
371 -> 372 ;
373 [label="gini = 0.0\nsamples = 1\nvalue = [1, 0]\nclass = F", fillcolor="#e58139ff"] ;
372 -> 373 ;
374 [label="gini = 0.0\nsamples = 1\nvalue = [0, 1]\nclass = M", fillcolor="#399de5ff"] ;
372 -> 374 ;
375 [label="gini = 0.0\nsamples = 1\nvalue = [0, 1]\nclass = M", fillcolor="#399de5ff"] ;
371 -> 375 ;
376 [label="gini = 0.0\nsamples = 3\nvalue = [0, 3]\nclass = M", fillcolor="#399de5ff"] ;
366 -> 376 ;
377 [label="TimeSlot(8-11) <= 2.5\ngini = 0.363\nsamples = 21\nvalue = [16, 5]\nclass = F", fillcolor="#e58139af"] ;
351 -> 377 ;
378 [label="TimeSlot(0-3) <= 1.5\ngini = 0.444\nsamples = 15\nvalue = [10, 5]\nclass = F", fillcolor="#e581397f"] ;
377 -> 378 ;
379 [label="TimeSlot(8-11) <= 0.5\ngini = 0.5\nsamples = 8\nvalue = [4, 4]\nclass = F", fillcolor="#e5813900"] ;
378 -> 379 ;
380 [label="gini = 0.0\nsamples = 1\nvalue = [1, 0]\nclass = F", fillcolor="#e58139ff"] ;
379 -> 380 ;
381 [label="TimeSlot(21-23) <= 0.5\ngini = 0.49\nsamples = 7\nvalue = [3, 4]\nclass = M", fillcolor="#399de540"] ;
379 -> 381 ;
382 [label="TimeSlot(16-20) <= 1.5\ngini = 0.5\nsamples = 6\nvalue = [3, 3]\nclass = F", fillcolor="#e5813900"] ;
381 -> 382 ;
383 [label="TimeSlot(16-20) <= 0.5\ngini = 0.444\nsamples = 3\nvalue = [2, 1]\nclass = F", fillcolor="#e581397f"] ;
382 -> 383 ;
384 [label="TimeSlot(4-7) <= 1.5\ngini = 0.5\nsamples = 2\nvalue = [1, 1]\nclass = F", fillcolor="#e5813900"] ;
383 -> 384 ;
385 [label="gini = 0.0\nsamples = 1\nvalue = [1, 0]\nclass = F", fillcolor="#e58139ff"] ;
384 -> 385 ;
386 [label="gini = 0.0\nsamples = 1\nvalue = [0, 1]\nclass = M", fillcolor="#399de5ff"] ;
384 -> 386 ;
387 [label="gini = 0.0\nsamples = 1\nvalue = [1, 0]\nclass = F", fillcolor="#e58139ff"] ;
383 -> 387 ;
388 [label="TimeSlot(0-3) <= 0.5\ngini = 0.444\nsamples = 3\nvalue = [1, 2]\nclass = M", fillcolor="#399de57f"] ;
382 -> 388 ;
389 [label="gini = 0.0\nsamples = 2\nvalue = [0, 2]\nclass = M", fillcolor="#399de5ff"] ;
388 -> 389 ;
390 [label="gini = 0.0\nsamples = 1\nvalue = [1, 0]\nclass = F", fillcolor="#e58139ff"] ;
388 -> 390 ;
391 [label="gini = 0.0\nsamples = 1\nvalue = [0, 1]\nclass = M", fillcolor="#399de5ff"] ;
381 -> 391 ;
392 [label="TimeSlot(21-23) <= 0.5\ngini = 0.245\nsamples = 7\nvalue = [6, 1]\nclass = F", fillcolor="#e58139d4"] ;
378 -> 392 ;
393 [label="TimeSlot(16-20) <= 2.0\ngini = 0.444\nsamples = 3\nvalue = [2, 1]\nclass = F", fillcolor="#e581397f"] ;
392 -> 393 ;
394 [label="gini = 0.0\nsamples = 2\nvalue = [2, 0]\nclass = F", fillcolor="#e58139ff"] ;
393 -> 394 ;
395 [label="gini = 0.0\nsamples = 1\nvalue = [0, 1]\nclass = M", fillcolor="#399de5ff"] ;
393 -> 395 ;
396 [label="gini = 0.0\nsamples = 4\nvalue = [4, 0]\nclass = F", fillcolor="#e58139ff"] ;
392 -> 396 ;
397 [label="gini = 0.0\nsamples = 6\nvalue = [6, 0]\nclass = F", fillcolor="#e58139ff"] ;
377 -> 397 ;
398 [label="TimeSlot(4-7) <= 1.5\ngini = 0.49\nsamples = 21\nvalue = [9, 12]\nclass = M", fillcolor="#399de540"] ;
348 -> 398 ;
399 [label="TimeSlot(12-13) <= 0.5\ngini = 0.346\nsamples = 9\nvalue = [2, 7]\nclass = M", fillcolor="#399de5b6"] ;
398 -> 399 ;
400 [label="TimeSlot(8-11) <= 2.0\ngini = 0.48\nsamples = 5\nvalue = [2, 3]\nclass = M", fillcolor="#399de555"] ;
399 -> 400 ;
401 [label="gini = 0.0\nsamples = 2\nvalue = [0, 2]\nclass = M", fillcolor="#399de5ff"] ;
400 -> 401 ;
402 [label="TimeSlot(16-20) <= 0.5\ngini = 0.444\nsamples = 3\nvalue = [2, 1]\nclass = F", fillcolor="#e581397f"] ;
400 -> 402 ;
403 [label="gini = 0.0\nsamples = 1\nvalue = [1, 0]\nclass = F", fillcolor="#e58139ff"] ;
402 -> 403 ;
404 [label="TimeSlot(21-23) <= 0.5\ngini = 0.5\nsamples = 2\nvalue = [1, 1]\nclass = F", fillcolor="#e5813900"] ;
402 -> 404 ;
405 [label="gini = 0.0\nsamples = 1\nvalue = [0, 1]\nclass = M", fillcolor="#399de5ff"] ;
404 -> 405 ;
406 [label="gini = 0.0\nsamples = 1\nvalue = [1, 0]\nclass = F", fillcolor="#e58139ff"] ;
404 -> 406 ;
407 [label="gini = 0.0\nsamples = 4\nvalue = [0, 4]\nclass = M", fillcolor="#399de5ff"] ;
399 -> 407 ;
408 [label="TimeSlot(16-20) <= 2.5\ngini = 0.486\nsamples = 12\nvalue = [7, 5]\nclass = F", fillcolor="#e5813949"] ;
398 -> 408 ;
409 [label="TimeSlot(14-15) <= 0.5\ngini = 0.278\nsamples = 6\nvalue = [5, 1]\nclass = F", fillcolor="#e58139cc"] ;
408 -> 409 ;
410 [label="gini = 0.0\nsamples = 4\nvalue = [4, 0]\nclass = F", fillcolor="#e58139ff"] ;
409 -> 410 ;
411 [label="TimeSlot(8-11) <= 2.5\ngini = 0.5\nsamples = 2\nvalue = [1, 1]\nclass = F", fillcolor="#e5813900"] ;
409 -> 411 ;
412 [label="gini = 0.0\nsamples = 1\nvalue = [0, 1]\nclass = M", fillcolor="#399de5ff"] ;
411 -> 412 ;
413 [label="gini = 0.0\nsamples = 1\nvalue = [1, 0]\nclass = F", fillcolor="#e58139ff"] ;
411 -> 413 ;
414 [label="TimeSlot(8-11) <= 0.5\ngini = 0.444\nsamples = 6\nvalue = [2, 4]\nclass = M", fillcolor="#399de57f"] ;
408 -> 414 ;
415 [label="gini = 0.0\nsamples = 3\nvalue = [0, 3]\nclass = M", fillcolor="#399de5ff"] ;
414 -> 415 ;
416 [label="TimeSlot(8-11) <= 2.0\ngini = 0.444\nsamples = 3\nvalue = [2, 1]\nclass = F", fillcolor="#e581397f"] ;
414 -> 416 ;
417 [label="gini = 0.0\nsamples = 2\nvalue = [2, 0]\nclass = F", fillcolor="#e58139ff"] ;
416 -> 417 ;
418 [label="gini = 0.0\nsamples = 1\nvalue = [0, 1]\nclass = M", fillcolor="#399de5ff"] ;
416 -> 418 ;
419 [label="TimeSlot(0-3) <= 2.5\ngini = 0.498\nsamples = 1753\nvalue = [930, 823]\nclass = F", fillcolor="#e581391d"] ;
347 -> 419 ;
420 [label="TimeSlot(14-15) <= 0.5\ngini = 0.499\nsamples = 1280\nvalue = [663, 617]\nclass = F", fillcolor="#e5813912"] ;
419 -> 420 ;
421 [label="TimeSlot(4-7) <= 1.5\ngini = 0.495\nsamples = 599\nvalue = [328, 271]\nclass = F", fillcolor="#e581392c"] ;
420 -> 421 ;
422 [label="TimeSlot(16-20) <= 2.5\ngini = 0.499\nsamples = 294\nvalue = [154, 140]\nclass = F", fillcolor="#e5813917"] ;
421 -> 422 ;
423 [label="TimeSlot(16-20) <= 1.5\ngini = 0.491\nsamples = 191\nvalue = [108, 83]\nclass = F", fillcolor="#e581393b"] ;
422 -> 423 ;
424 [label="Age <= 23.5\ngini = 0.5\nsamples = 116\nvalue = [58, 58]\nclass = F", fillcolor="#e5813900"] ;
423 -> 424 ;
425 [label="Age <= 8.5\ngini = 0.492\nsamples = 71\nvalue = [31, 40]\nclass = M", fillcolor="#399de539"] ;
424 -> 425 ;
426 [label="gini = 0.0\nsamples = 2\nvalue = [0, 2]\nclass = M", fillcolor="#399de5ff"] ;
425 -> 426 ;
427 [label="Age <= 12.5\ngini = 0.495\nsamples = 69\nvalue = [31, 38]\nclass = M", fillcolor="#399de52f"] ;
425 -> 427 ;
428 [label="TimeSlot(21-23) <= 0.5\ngini = 0.49\nsamples = 21\nvalue = [12, 9]\nclass = F", fillcolor="#e5813940"] ;
427 -> 428 ;
429 [label="TimeSlot(8-11) <= 2.5\ngini = 0.496\nsamples = 11\nvalue = [5, 6]\nclass = M", fillcolor="#399de52a"] ;
428 -> 429 ;
430 [label="Age <= 11.5\ngini = 0.494\nsamples = 9\nvalue = [5, 4]\nclass = F", fillcolor="#e5813933"] ;
429 -> 430 ;
431 [label="TimeSlot(0-3) <= 0.5\ngini = 0.49\nsamples = 7\nvalue = [3, 4]\nclass = M", fillcolor="#399de540"] ;
430 -> 431 ;
432 [label="TimeSlot(4-7) <= 0.5\ngini = 0.444\nsamples = 3\nvalue = [2, 1]\nclass = F", fillcolor="#e581397f"] ;
431 -> 432 ;
433 [label="gini = 0.0\nsamples = 1\nvalue = [1, 0]\nclass = F", fillcolor="#e58139ff"] ;
432 -> 433 ;
434 [label="Age <= 9.5\ngini = 0.5\nsamples = 2\nvalue = [1, 1]\nclass = F", fillcolor="#e5813900"] ;
432 -> 434 ;
435 [label="gini = 0.0\nsamples = 1\nvalue = [1, 0]\nclass = F", fillcolor="#e58139ff"] ;
434 -> 435 ;
436 [label="gini = 0.0\nsamples = 1\nvalue = [0, 1]\nclass = M", fillcolor="#399de5ff"] ;
434 -> 436 ;
437 [label="Age <= 10.5\ngini = 0.375\nsamples = 4\nvalue = [1, 3]\nclass = M", fillcolor="#399de5aa"] ;
431 -> 437 ;
438 [label="gini = 0.0\nsamples = 2\nvalue = [0, 2]\nclass = M", fillcolor="#399de5ff"] ;
437 -> 438 ;
439 [label="TimeSlot(0-3) <= 1.5\ngini = 0.5\nsamples = 2\nvalue = [1, 1]\nclass = F", fillcolor="#e5813900"] ;
437 -> 439 ;
440 [label="gini = 0.0\nsamples = 1\nvalue = [1, 0]\nclass = F", fillcolor="#e58139ff"] ;
439 -> 440 ;
441 [label="gini = 0.0\nsamples = 1\nvalue = [0, 1]\nclass = M", fillcolor="#399de5ff"] ;
439 -> 441 ;
442 [label="gini = 0.0\nsamples = 2\nvalue = [2, 0]\nclass = F", fillcolor="#e58139ff"] ;
430 -> 442 ;
443 [label="gini = 0.0\nsamples = 2\nvalue = [0, 2]\nclass = M", fillcolor="#399de5ff"] ;
429 -> 443 ;
444 [label="TimeSlot(8-11) <= 2.5\ngini = 0.42\nsamples = 10\nvalue = [7, 3]\nclass = F", fillcolor="#e5813992"] ;
428 -> 444 ;
445 [label="TimeSlot(12-13) <= 0.5\ngini = 0.49\nsamples = 7\nvalue = [4, 3]\nclass = F", fillcolor="#e5813940"] ;
444 -> 445 ;
446 [label="TimeSlot(8-11) <= 1.5\ngini = 0.32\nsamples = 5\nvalue = [4, 1]\nclass = F", fillcolor="#e58139bf"] ;
445 -> 446 ;
447 [label="gini = 0.0\nsamples = 4\nvalue = [4, 0]\nclass = F", fillcolor="#e58139ff"] ;
446 -> 447 ;
448 [label="gini = 0.0\nsamples = 1\nvalue = [0, 1]\nclass = M", fillcolor="#399de5ff"] ;
446 -> 448 ;
449 [label="gini = 0.0\nsamples = 2\nvalue = [0, 2]\nclass = M", fillcolor="#399de5ff"] ;
445 -> 449 ;
450 [label="gini = 0.0\nsamples = 3\nvalue = [3, 0]\nclass = F", fillcolor="#e58139ff"] ;
444 -> 450 ;
451 [label="Age <= 16.5\ngini = 0.478\nsamples = 48\nvalue = [19, 29]\nclass = M", fillcolor="#399de558"] ;
427 -> 451 ;
452 [label="Age <= 14.5\ngini = 0.42\nsamples = 20\nvalue = [6, 14]\nclass = M", fillcolor="#399de592"] ;
451 -> 452 ;
453 [label="TimeSlot(8-11) <= 2.5\ngini = 0.486\nsamples = 12\nvalue = [5, 7]\nclass = M", fillcolor="#399de549"] ;
452 -> 453 ;
454 [label="TimeSlot(12-13) <= 0.5\ngini = 0.375\nsamples = 8\nvalue = [2, 6]\nclass = M", fillcolor="#399de5aa"] ;
453 -> 454 ;
455 [label="gini = 0.0\nsamples = 2\nvalue = [0, 2]\nclass = M", fillcolor="#399de5ff"] ;
454 -> 455 ;
456 [label="TimeSlot(0-3) <= 0.5\ngini = 0.444\nsamples = 6\nvalue = [2, 4]\nclass = M", fillcolor="#399de57f"] ;
454 -> 456 ;
457 [label="gini = 0.0\nsamples = 1\nvalue = [0, 1]\nclass = M", fillcolor="#399de5ff"] ;
456 -> 457 ;
458 [label="TimeSlot(8-11) <= 0.5\ngini = 0.48\nsamples = 5\nvalue = [2, 3]\nclass = M", fillcolor="#399de555"] ;
456 -> 458 ;
459 [label="gini = 0.0\nsamples = 1\nvalue = [0, 1]\nclass = M", fillcolor="#399de5ff"] ;
458 -> 459 ;
460 [label="TimeSlot(21-23) <= 0.5\ngini = 0.5\nsamples = 4\nvalue = [2, 2]\nclass = F", fillcolor="#e5813900"] ;
458 -> 460 ;
461 [label="gini = 0.0\nsamples = 1\nvalue = [1, 0]\nclass = F", fillcolor="#e58139ff"] ;
460 -> 461 ;
462 [label="TimeSlot(16-20) <= 0.5\ngini = 0.444\nsamples = 3\nvalue = [1, 2]\nclass = M", fillcolor="#399de57f"] ;
460 -> 462 ;
463 [label="gini = 0.0\nsamples = 1\nvalue = [1, 0]\nclass = F", fillcolor="#e58139ff"] ;
462 -> 463 ;
464 [label="gini = 0.0\nsamples = 2\nvalue = [0, 2]\nclass = M", fillcolor="#399de5ff"] ;
462 -> 464 ;
465 [label="TimeSlot(21-23) <= 0.5\ngini = 0.375\nsamples = 4\nvalue = [3, 1]\nclass = F", fillcolor="#e58139aa"] ;
453 -> 465 ;
466 [label="gini = 0.0\nsamples = 1\nvalue = [0, 1]\nclass = M", fillcolor="#399de5ff"] ;
465 -> 466 ;
467 [label="gini = 0.0\nsamples = 3\nvalue = [3, 0]\nclass = F", fillcolor="#e58139ff"] ;
465 -> 467 ;
468 [label="TimeSlot(0-3) <= 1.5\ngini = 0.219\nsamples = 8\nvalue = [1, 7]\nclass = M", fillcolor="#399de5db"] ;
452 -> 468 ;
469 [label="gini = 0.0\nsamples = 5\nvalue = [0, 5]\nclass = M", fillcolor="#399de5ff"] ;
468 -> 469 ;
470 [label="TimeSlot(4-7) <= 0.5\ngini = 0.444\nsamples = 3\nvalue = [1, 2]\nclass = M", fillcolor="#399de57f"] ;
468 -> 470 ;
471 [label="gini = 0.0\nsamples = 1\nvalue = [0, 1]\nclass = M", fillcolor="#399de5ff"] ;
470 -> 471 ;
472 [label="TimeSlot(12-13) <= 0.5\ngini = 0.5\nsamples = 2\nvalue = [1, 1]\nclass = F", fillcolor="#e5813900"] ;
470 -> 472 ;
473 [label="gini = 0.0\nsamples = 1\nvalue = [0, 1]\nclass = M", fillcolor="#399de5ff"] ;
472 -> 473 ;
474 [label="gini = 0.0\nsamples = 1\nvalue = [1, 0]\nclass = F", fillcolor="#e58139ff"] ;
472 -> 474 ;
475 [label="TimeSlot(16-20) <= 0.5\ngini = 0.497\nsamples = 28\nvalue = [13, 15]\nclass = M", fillcolor="#399de522"] ;
451 -> 475 ;
476 [label="Age <= 19.5\ngini = 0.463\nsamples = 11\nvalue = [7, 4]\nclass = F", fillcolor="#e581396d"] ;
475 -> 476 ;
477 [label="gini = 0.0\nsamples = 6\nvalue = [6, 0]\nclass = F", fillcolor="#e58139ff"] ;
476 -> 477 ;
478 [label="Age <= 22.5\ngini = 0.32\nsamples = 5\nvalue = [1, 4]\nclass = M", fillcolor="#399de5bf"] ;
476 -> 478 ;
479 [label="TimeSlot(8-11) <= 1.5\ngini = 0.444\nsamples = 3\nvalue = [1, 2]\nclass = M", fillcolor="#399de57f"] ;
478 -> 479 ;
480 [label="gini = 0.0\nsamples = 1\nvalue = [1, 0]\nclass = F", fillcolor="#e58139ff"] ;
479 -> 480 ;
481 [label="gini = 0.0\nsamples = 2\nvalue = [0, 2]\nclass = M", fillcolor="#399de5ff"] ;
479 -> 481 ;
482 [label="gini = 0.0\nsamples = 2\nvalue = [0, 2]\nclass = M", fillcolor="#399de5ff"] ;
478 -> 482 ;
483 [label="Age <= 19.5\ngini = 0.457\nsamples = 17\nvalue = [6, 11]\nclass = M", fillcolor="#399de574"] ;
475 -> 483 ;
484 [label="Age <= 17.5\ngini = 0.219\nsamples = 8\nvalue = [1, 7]\nclass = M", fillcolor="#399de5db"] ;
483 -> 484 ;
485 [label="TimeSlot(0-3) <= 1.0\ngini = 0.5\nsamples = 2\nvalue = [1, 1]\nclass = F", fillcolor="#e5813900"] ;
484 -> 485 ;
486 [label="gini = 0.0\nsamples = 1\nvalue = [0, 1]\nclass = M", fillcolor="#399de5ff"] ;
485 -> 486 ;
487 [label="gini = 0.0\nsamples = 1\nvalue = [1, 0]\nclass = F", fillcolor="#e58139ff"] ;
485 -> 487 ;
488 [label="gini = 0.0\nsamples = 6\nvalue = [0, 6]\nclass = M", fillcolor="#399de5ff"] ;
484 -> 488 ;
489 [label="TimeSlot(8-11) <= 1.5\ngini = 0.494\nsamples = 9\nvalue = [5, 4]\nclass = F", fillcolor="#e5813933"] ;
483 -> 489 ;
490 [label="Age <= 21.5\ngini = 0.375\nsamples = 4\nvalue = [1, 3]\nclass = M", fillcolor="#399de5aa"] ;
489 -> 490 ;
491 [label="TimeSlot(12-13) <= 0.5\ngini = 0.5\nsamples = 2\nvalue = [1, 1]\nclass = F", fillcolor="#e5813900"] ;
490 -> 491 ;
492 [label="gini = 0.0\nsamples = 1\nvalue = [1, 0]\nclass = F", fillcolor="#e58139ff"] ;
491 -> 492 ;
493 [label="gini = 0.0\nsamples = 1\nvalue = [0, 1]\nclass = M", fillcolor="#399de5ff"] ;
491 -> 493 ;
494 [label="gini = 0.0\nsamples = 2\nvalue = [0, 2]\nclass = M", fillcolor="#399de5ff"] ;
490 -> 494 ;
495 [label="Age <= 22.5\ngini = 0.32\nsamples = 5\nvalue = [4, 1]\nclass = F", fillcolor="#e58139bf"] ;
489 -> 495 ;
496 [label="gini = 0.0\nsamples = 3\nvalue = [3, 0]\nclass = F", fillcolor="#e58139ff"] ;
495 -> 496 ;
497 [label="TimeSlot(4-7) <= 0.5\ngini = 0.5\nsamples = 2\nvalue = [1, 1]\nclass = F", fillcolor="#e5813900"] ;
495 -> 497 ;
498 [label="gini = 0.0\nsamples = 1\nvalue = [0, 1]\nclass = M", fillcolor="#399de5ff"] ;
497 -> 498 ;
499 [label="gini = 0.0\nsamples = 1\nvalue = [1, 0]\nclass = F", fillcolor="#e58139ff"] ;
497 -> 499 ;
500 [label="Age <= 25.5\ngini = 0.48\nsamples = 45\nvalue = [27, 18]\nclass = F", fillcolor="#e5813955"] ;
424 -> 500 ;
501 [label="gini = 0.0\nsamples = 5\nvalue = [5, 0]\nclass = F", fillcolor="#e58139ff"] ;
500 -> 501 ;
502 [label="TimeSlot(8-11) <= 0.5\ngini = 0.495\nsamples = 40\nvalue = [22, 18]\nclass = F", fillcolor="#e581392e"] ;
500 -> 502 ;
503 [label="Age <= 30.5\ngini = 0.397\nsamples = 11\nvalue = [3, 8]\nclass = M", fillcolor="#399de59f"] ;
502 -> 503 ;
504 [label="gini = 0.0\nsamples = 5\nvalue = [0, 5]\nclass = M", fillcolor="#399de5ff"] ;
503 -> 504 ;
505 [label="TimeSlot(16-20) <= 0.5\ngini = 0.5\nsamples = 6\nvalue = [3, 3]\nclass = F", fillcolor="#e5813900"] ;
503 -> 505 ;
506 [label="gini = 0.0\nsamples = 2\nvalue = [0, 2]\nclass = M", fillcolor="#399de5ff"] ;
505 -> 506 ;
507 [label="TimeSlot(0-3) <= 1.5\ngini = 0.375\nsamples = 4\nvalue = [3, 1]\nclass = F", fillcolor="#e58139aa"] ;
505 -> 507 ;
508 [label="gini = 0.0\nsamples = 3\nvalue = [3, 0]\nclass = F", fillcolor="#e58139ff"] ;
507 -> 508 ;
509 [label="gini = 0.0\nsamples = 1\nvalue = [0, 1]\nclass = M", fillcolor="#399de5ff"] ;
507 -> 509 ;
510 [label="TimeSlot(4-7) <= 0.5\ngini = 0.452\nsamples = 29\nvalue = [19, 10]\nclass = F", fillcolor="#e5813979"] ;
502 -> 510 ;
511 [label="TimeSlot(8-11) <= 2.5\ngini = 0.337\nsamples = 14\nvalue = [11, 3]\nclass = F", fillcolor="#e58139b9"] ;
510 -> 511 ;
512 [label="Age <= 34.5\ngini = 0.18\nsamples = 10\nvalue = [9, 1]\nclass = F", fillcolor="#e58139e3"] ;
511 -> 512 ;
513 [label="gini = 0.0\nsamples = 9\nvalue = [9, 0]\nclass = F", fillcolor="#e58139ff"] ;
512 -> 513 ;
514 [label="gini = 0.0\nsamples = 1\nvalue = [0, 1]\nclass = M", fillcolor="#399de5ff"] ;
512 -> 514 ;
515 [label="Age <= 29.5\ngini = 0.5\nsamples = 4\nvalue = [2, 2]\nclass = F", fillcolor="#e5813900"] ;
511 -> 515 ;
516 [label="gini = 0.0\nsamples = 1\nvalue = [0, 1]\nclass = M", fillcolor="#399de5ff"] ;
515 -> 516 ;
517 [label="TimeSlot(12-13) <= 0.5\ngini = 0.444\nsamples = 3\nvalue = [2, 1]\nclass = F", fillcolor="#e581397f"] ;
515 -> 517 ;
518 [label="gini = 0.0\nsamples = 2\nvalue = [2, 0]\nclass = F", fillcolor="#e58139ff"] ;
517 -> 518 ;
519 [label="gini = 0.0\nsamples = 1\nvalue = [0, 1]\nclass = M", fillcolor="#399de5ff"] ;
517 -> 519 ;
520 [label="TimeSlot(0-3) <= 1.5\ngini = 0.498\nsamples = 15\nvalue = [8, 7]\nclass = F", fillcolor="#e5813920"] ;
510 -> 520 ;
521 [label="TimeSlot(8-11) <= 2.5\ngini = 0.444\nsamples = 9\nvalue = [3, 6]\nclass = M", fillcolor="#399de57f"] ;
520 -> 521 ;
522 [label="gini = 0.0\nsamples = 4\nvalue = [0, 4]\nclass = M", fillcolor="#399de5ff"] ;
521 -> 522 ;
523 [label="TimeSlot(12-13) <= 0.5\ngini = 0.48\nsamples = 5\nvalue = [3, 2]\nclass = F", fillcolor="#e5813955"] ;
521 -> 523 ;
524 [label="gini = 0.0\nsamples = 2\nvalue = [2, 0]\nclass = F", fillcolor="#e58139ff"] ;
523 -> 524 ;
525 [label="TimeSlot(16-20) <= 0.5\ngini = 0.444\nsamples = 3\nvalue = [1, 2]\nclass = M", fillcolor="#399de57f"] ;
523 -> 525 ;
526 [label="TimeSlot(0-3) <= 0.5\ngini = 0.5\nsamples = 2\nvalue = [1, 1]\nclass = F", fillcolor="#e5813900"] ;
525 -> 526 ;
527 [label="gini = 0.0\nsamples = 1\nvalue = [1, 0]\nclass = F", fillcolor="#e58139ff"] ;
526 -> 527 ;
528 [label="gini = 0.0\nsamples = 1\nvalue = [0, 1]\nclass = M", fillcolor="#399de5ff"] ;
526 -> 528 ;
529 [label="gini = 0.0\nsamples = 1\nvalue = [0, 1]\nclass = M", fillcolor="#399de5ff"] ;
525 -> 529 ;
530 [label="TimeSlot(8-11) <= 2.5\ngini = 0.278\nsamples = 6\nvalue = [5, 1]\nclass = F", fillcolor="#e58139cc"] ;
520 -> 530 ;
531 [label="gini = 0.0\nsamples = 5\nvalue = [5, 0]\nclass = F", fillcolor="#e58139ff"] ;
530 -> 531 ;
532 [label="gini = 0.0\nsamples = 1\nvalue = [0, 1]\nclass = M", fillcolor="#399de5ff"] ;
530 -> 532 ;
533 [label="TimeSlot(4-7) <= 0.5\ngini = 0.444\nsamples = 75\nvalue = [50, 25]\nclass = F", fillcolor="#e581397f"] ;
423 -> 533 ;
534 [label="Age <= 23.0\ngini = 0.35\nsamples = 31\nvalue = [24, 7]\nclass = F", fillcolor="#e58139b5"] ;
533 -> 534 ;
535 [label="Age <= 8.5\ngini = 0.48\nsamples = 15\nvalue = [9, 6]\nclass = F", fillcolor="#e5813955"] ;
534 -> 535 ;
536 [label="gini = 0.0\nsamples = 1\nvalue = [1, 0]\nclass = F", fillcolor="#e58139ff"] ;
535 -> 536 ;
537 [label="Age <= 10.0\ngini = 0.49\nsamples = 14\nvalue = [8, 6]\nclass = F", fillcolor="#e5813940"] ;
535 -> 537 ;
538 [label="gini = 0.0\nsamples = 1\nvalue = [0, 1]\nclass = M", fillcolor="#399de5ff"] ;
537 -> 538 ;
539 [label="Age <= 14.5\ngini = 0.473\nsamples = 13\nvalue = [8, 5]\nclass = F", fillcolor="#e5813960"] ;
537 -> 539 ;
540 [label="Age <= 12.5\ngini = 0.32\nsamples = 5\nvalue = [4, 1]\nclass = F", fillcolor="#e58139bf"] ;
539 -> 540 ;
541 [label="Age <= 11.5\ngini = 0.5\nsamples = 2\nvalue = [1, 1]\nclass = F", fillcolor="#e5813900"] ;
540 -> 541 ;
542 [label="gini = 0.0\nsamples = 1\nvalue = [1, 0]\nclass = F", fillcolor="#e58139ff"] ;
541 -> 542 ;
543 [label="gini = 0.0\nsamples = 1\nvalue = [0, 1]\nclass = M", fillcolor="#399de5ff"] ;
541 -> 543 ;
544 [label="gini = 0.0\nsamples = 3\nvalue = [3, 0]\nclass = F", fillcolor="#e58139ff"] ;
540 -> 544 ;
545 [label="TimeSlot(8-11) <= 2.5\ngini = 0.5\nsamples = 8\nvalue = [4, 4]\nclass = F", fillcolor="#e5813900"] ;
539 -> 545 ;
546 [label="TimeSlot(12-13) <= 0.5\ngini = 0.49\nsamples = 7\nvalue = [4, 3]\nclass = F", fillcolor="#e5813940"] ;
545 -> 546 ;
547 [label="Age <= 17.0\ngini = 0.375\nsamples = 4\nvalue = [3, 1]\nclass = F", fillcolor="#e58139aa"] ;
546 -> 547 ;
548 [label="gini = 0.0\nsamples = 1\nvalue = [0, 1]\nclass = M", fillcolor="#399de5ff"] ;
547 -> 548 ;
549 [label="gini = 0.0\nsamples = 3\nvalue = [3, 0]\nclass = F", fillcolor="#e58139ff"] ;
547 -> 549 ;
550 [label="Age <= 17.5\ngini = 0.444\nsamples = 3\nvalue = [1, 2]\nclass = M", fillcolor="#399de57f"] ;
546 -> 550 ;
551 [label="gini = 0.0\nsamples = 1\nvalue = [1, 0]\nclass = F", fillcolor="#e58139ff"] ;
550 -> 551 ;
552 [label="gini = 0.0\nsamples = 2\nvalue = [0, 2]\nclass = M", fillcolor="#399de5ff"] ;
550 -> 552 ;
553 [label="gini = 0.0\nsamples = 1\nvalue = [0, 1]\nclass = M", fillcolor="#399de5ff"] ;
545 -> 553 ;
554 [label="TimeSlot(0-3) <= 1.5\ngini = 0.117\nsamples = 16\nvalue = [15, 1]\nclass = F", fillcolor="#e58139ee"] ;
534 -> 554 ;
555 [label="gini = 0.0\nsamples = 13\nvalue = [13, 0]\nclass = F", fillcolor="#e58139ff"] ;
554 -> 555 ;
556 [label="TimeSlot(21-23) <= 0.5\ngini = 0.444\nsamples = 3\nvalue = [2, 1]\nclass = F", fillcolor="#e581397f"] ;
554 -> 556 ;
557 [label="gini = 0.0\nsamples = 2\nvalue = [2, 0]\nclass = F", fillcolor="#e58139ff"] ;
556 -> 557 ;
558 [label="gini = 0.0\nsamples = 1\nvalue = [0, 1]\nclass = M", fillcolor="#399de5ff"] ;
556 -> 558 ;
559 [label="Age <= 29.5\ngini = 0.483\nsamples = 44\nvalue = [26, 18]\nclass = F", fillcolor="#e581394e"] ;
533 -> 559 ;
560 [label="TimeSlot(0-3) <= 0.5\ngini = 0.438\nsamples = 34\nvalue = [23, 11]\nclass = F", fillcolor="#e5813985"] ;
559 -> 560 ;
561 [label="Age <= 28.5\ngini = 0.48\nsamples = 10\nvalue = [4, 6]\nclass = M", fillcolor="#399de555"] ;
560 -> 561 ;
562 [label="Age <= 14.0\ngini = 0.444\nsamples = 9\nvalue = [3, 6]\nclass = M", fillcolor="#399de57f"] ;
561 -> 562 ;
563 [label="Age <= 9.0\ngini = 0.444\nsamples = 3\nvalue = [2, 1]\nclass = F", fillcolor="#e581397f"] ;
562 -> 563 ;
564 [label="gini = 0.0\nsamples = 1\nvalue = [0, 1]\nclass = M", fillcolor="#399de5ff"] ;
563 -> 564 ;
565 [label="gini = 0.0\nsamples = 2\nvalue = [2, 0]\nclass = F", fillcolor="#e58139ff"] ;
563 -> 565 ;
566 [label="TimeSlot(8-11) <= 1.5\ngini = 0.278\nsamples = 6\nvalue = [1, 5]\nclass = M", fillcolor="#399de5cc"] ;
562 -> 566 ;
567 [label="gini = 0.0\nsamples = 4\nvalue = [0, 4]\nclass = M", fillcolor="#399de5ff"] ;
566 -> 567 ;
568 [label="TimeSlot(12-13) <= 0.5\ngini = 0.5\nsamples = 2\nvalue = [1, 1]\nclass = F", fillcolor="#e5813900"] ;
566 -> 568 ;
569 [label="gini = 0.0\nsamples = 1\nvalue = [1, 0]\nclass = F", fillcolor="#e58139ff"] ;
568 -> 569 ;
570 [label="gini = 0.0\nsamples = 1\nvalue = [0, 1]\nclass = M", fillcolor="#399de5ff"] ;
568 -> 570 ;
571 [label="gini = 0.0\nsamples = 1\nvalue = [1, 0]\nclass = F", fillcolor="#e58139ff"] ;
561 -> 571 ;
572 [label="Age <= 23.5\ngini = 0.33\nsamples = 24\nvalue = [19, 5]\nclass = F", fillcolor="#e58139bc"] ;
560 -> 572 ;
573 [label="Age <= 17.0\ngini = 0.388\nsamples = 19\nvalue = [14, 5]\nclass = F", fillcolor="#e58139a4"] ;
572 -> 573 ;
574 [label="TimeSlot(21-23) <= 0.5\ngini = 0.278\nsamples = 12\nvalue = [10, 2]\nclass = F", fillcolor="#e58139cc"] ;
573 -> 574 ;
575 [label="gini = 0.0\nsamples = 8\nvalue = [8, 0]\nclass = F", fillcolor="#e58139ff"] ;
574 -> 575 ;
576 [label="Age <= 11.5\ngini = 0.5\nsamples = 4\nvalue = [2, 2]\nclass = F", fillcolor="#e5813900"] ;
574 -> 576 ;
577 [label="gini = 0.0\nsamples = 2\nvalue = [0, 2]\nclass = M", fillcolor="#399de5ff"] ;
576 -> 577 ;
578 [label="gini = 0.0\nsamples = 2\nvalue = [2, 0]\nclass = F", fillcolor="#e58139ff"] ;
576 -> 578 ;
579 [label="TimeSlot(12-13) <= 0.5\ngini = 0.49\nsamples = 7\nvalue = [4, 3]\nclass = F", fillcolor="#e5813940"] ;
573 -> 579 ;
580 [label="TimeSlot(21-23) <= 0.5\ngini = 0.375\nsamples = 4\nvalue = [3, 1]\nclass = F", fillcolor="#e58139aa"] ;
579 -> 580 ;
581 [label="TimeSlot(8-11) <= 2.0\ngini = 0.5\nsamples = 2\nvalue = [1, 1]\nclass = F", fillcolor="#e5813900"] ;
580 -> 581 ;
582 [label="gini = 0.0\nsamples = 1\nvalue = [1, 0]\nclass = F", fillcolor="#e58139ff"] ;
581 -> 582 ;
583 [label="gini = 0.0\nsamples = 1\nvalue = [0, 1]\nclass = M", fillcolor="#399de5ff"] ;
581 -> 583 ;
584 [label="gini = 0.0\nsamples = 2\nvalue = [2, 0]\nclass = F", fillcolor="#e58139ff"] ;
580 -> 584 ;
585 [label="TimeSlot(8-11) <= 2.5\ngini = 0.444\nsamples = 3\nvalue = [1, 2]\nclass = M", fillcolor="#399de57f"] ;
579 -> 585 ;
586 [label="gini = 0.0\nsamples = 2\nvalue = [0, 2]\nclass = M", fillcolor="#399de5ff"] ;
585 -> 586 ;
587 [label="gini = 0.0\nsamples = 1\nvalue = [1, 0]\nclass = F", fillcolor="#e58139ff"] ;
585 -> 587 ;
588 [label="gini = 0.0\nsamples = 5\nvalue = [5, 0]\nclass = F", fillcolor="#e58139ff"] ;
572 -> 588 ;
589 [label="Age <= 31.5\ngini = 0.42\nsamples = 10\nvalue = [3, 7]\nclass = M", fillcolor="#399de592"] ;
559 -> 589 ;
590 [label="gini = 0.0\nsamples = 5\nvalue = [0, 5]\nclass = M", fillcolor="#399de5ff"] ;
589 -> 590 ;
591 [label="TimeSlot(0-3) <= 1.5\ngini = 0.48\nsamples = 5\nvalue = [3, 2]\nclass = F", fillcolor="#e5813955"] ;
589 -> 591 ;
592 [label="gini = 0.0\nsamples = 2\nvalue = [2, 0]\nclass = F", fillcolor="#e58139ff"] ;
591 -> 592 ;
593 [label="TimeSlot(21-23) <= 0.5\ngini = 0.444\nsamples = 3\nvalue = [1, 2]\nclass = M", fillcolor="#399de57f"] ;
591 -> 593 ;
594 [label="gini = 0.0\nsamples = 1\nvalue = [1, 0]\nclass = F", fillcolor="#e58139ff"] ;
593 -> 594 ;
595 [label="gini = 0.0\nsamples = 2\nvalue = [0, 2]\nclass = M", fillcolor="#399de5ff"] ;
593 -> 595 ;
596 [label="TimeSlot(8-11) <= 0.5\ngini = 0.494\nsamples = 103\nvalue = [46, 57]\nclass = M", fillcolor="#399de531"] ;
422 -> 596 ;
597 [label="TimeSlot(0-3) <= 0.5\ngini = 0.408\nsamples = 21\nvalue = [6, 15]\nclass = M", fillcolor="#399de599"] ;
596 -> 597 ;
598 [label="TimeSlot(12-13) <= 0.5\ngini = 0.198\nsamples = 9\nvalue = [1, 8]\nclass = M", fillcolor="#399de5df"] ;
597 -> 598 ;
599 [label="TimeSlot(16-20) <= 3.5\ngini = 0.5\nsamples = 2\nvalue = [1, 1]\nclass = F", fillcolor="#e5813900"] ;
598 -> 599 ;
600 [label="gini = 0.0\nsamples = 1\nvalue = [0, 1]\nclass = M", fillcolor="#399de5ff"] ;
599 -> 600 ;
601 [label="gini = 0.0\nsamples = 1\nvalue = [1, 0]\nclass = F", fillcolor="#e58139ff"] ;
599 -> 601 ;
602 [label="gini = 0.0\nsamples = 7\nvalue = [0, 7]\nclass = M", fillcolor="#399de5ff"] ;
598 -> 602 ;
603 [label="Age <= 18.0\ngini = 0.486\nsamples = 12\nvalue = [5, 7]\nclass = M", fillcolor="#399de549"] ;
597 -> 603 ;
604 [label="gini = 0.0\nsamples = 3\nvalue = [0, 3]\nclass = M", fillcolor="#399de5ff"] ;
603 -> 604 ;
605 [label="Age <= 28.5\ngini = 0.494\nsamples = 9\nvalue = [5, 4]\nclass = F", fillcolor="#e5813933"] ;
603 -> 605 ;
606 [label="gini = 0.0\nsamples = 2\nvalue = [2, 0]\nclass = F", fillcolor="#e58139ff"] ;
605 -> 606 ;
607 [label="TimeSlot(4-7) <= 0.5\ngini = 0.49\nsamples = 7\nvalue = [3, 4]\nclass = M", fillcolor="#399de540"] ;
605 -> 607 ;
608 [label="TimeSlot(16-20) <= 3.5\ngini = 0.444\nsamples = 3\nvalue = [2, 1]\nclass = F", fillcolor="#e581397f"] ;
607 -> 608 ;
609 [label="gini = 0.0\nsamples = 1\nvalue = [0, 1]\nclass = M", fillcolor="#399de5ff"] ;
608 -> 609 ;
610 [label="gini = 0.0\nsamples = 2\nvalue = [2, 0]\nclass = F", fillcolor="#e58139ff"] ;
608 -> 610 ;
611 [label="TimeSlot(16-20) <= 3.5\ngini = 0.375\nsamples = 4\nvalue = [1, 3]\nclass = M", fillcolor="#399de5aa"] ;
607 -> 611 ;
612 [label="Age <= 32.0\ngini = 0.5\nsamples = 2\nvalue = [1, 1]\nclass = F", fillcolor="#e5813900"] ;
611 -> 612 ;
613 [label="gini = 0.0\nsamples = 1\nvalue = [1, 0]\nclass = F", fillcolor="#e58139ff"] ;
612 -> 613 ;
614 [label="gini = 0.0\nsamples = 1\nvalue = [0, 1]\nclass = M", fillcolor="#399de5ff"] ;
612 -> 614 ;
615 [label="gini = 0.0\nsamples = 2\nvalue = [0, 2]\nclass = M", fillcolor="#399de5ff"] ;
611 -> 615 ;
616 [label="Age <= 16.5\ngini = 0.5\nsamples = 82\nvalue = [40, 42]\nclass = M", fillcolor="#399de50c"] ;
596 -> 616 ;
617 [label="TimeSlot(8-11) <= 2.5\ngini = 0.476\nsamples = 23\nvalue = [14, 9]\nclass = F", fillcolor="#e581395b"] ;
616 -> 617 ;
618 [label="TimeSlot(0-3) <= 0.5\ngini = 0.391\nsamples = 15\nvalue = [11, 4]\nclass = F", fillcolor="#e58139a2"] ;
617 -> 618 ;
619 [label="Age <= 15.5\ngini = 0.5\nsamples = 6\nvalue = [3, 3]\nclass = F", fillcolor="#e5813900"] ;
618 -> 619 ;
620 [label="TimeSlot(8-11) <= 1.5\ngini = 0.48\nsamples = 5\nvalue = [2, 3]\nclass = M", fillcolor="#399de555"] ;
619 -> 620 ;
621 [label="gini = 0.0\nsamples = 2\nvalue = [0, 2]\nclass = M", fillcolor="#399de5ff"] ;
620 -> 621 ;
622 [label="TimeSlot(21-23) <= 0.5\ngini = 0.444\nsamples = 3\nvalue = [2, 1]\nclass = F", fillcolor="#e581397f"] ;
620 -> 622 ;
623 [label="TimeSlot(12-13) <= 0.5\ngini = 0.5\nsamples = 2\nvalue = [1, 1]\nclass = F", fillcolor="#e5813900"] ;
622 -> 623 ;
624 [label="gini = 0.0\nsamples = 1\nvalue = [0, 1]\nclass = M", fillcolor="#399de5ff"] ;
623 -> 624 ;
625 [label="gini = 0.0\nsamples = 1\nvalue = [1, 0]\nclass = F", fillcolor="#e58139ff"] ;
623 -> 625 ;
626 [label="gini = 0.0\nsamples = 1\nvalue = [1, 0]\nclass = F", fillcolor="#e58139ff"] ;
622 -> 626 ;
627 [label="gini = 0.0\nsamples = 1\nvalue = [1, 0]\nclass = F", fillcolor="#e58139ff"] ;
619 -> 627 ;
628 [label="Age <= 8.5\ngini = 0.198\nsamples = 9\nvalue = [8, 1]\nclass = F", fillcolor="#e58139df"] ;
618 -> 628 ;
629 [label="TimeSlot(12-13) <= 0.5\ngini = 0.5\nsamples = 2\nvalue = [1, 1]\nclass = F", fillcolor="#e5813900"] ;
628 -> 629 ;
630 [label="gini = 0.0\nsamples = 1\nvalue = [0, 1]\nclass = M", fillcolor="#399de5ff"] ;
629 -> 630 ;
631 [label="gini = 0.0\nsamples = 1\nvalue = [1, 0]\nclass = F", fillcolor="#e58139ff"] ;
629 -> 631 ;
632 [label="gini = 0.0\nsamples = 7\nvalue = [7, 0]\nclass = F", fillcolor="#e58139ff"] ;
628 -> 632 ;
633 [label="TimeSlot(12-13) <= 0.5\ngini = 0.469\nsamples = 8\nvalue = [3, 5]\nclass = M", fillcolor="#399de566"] ;
617 -> 633 ;
634 [label="gini = 0.0\nsamples = 3\nvalue = [0, 3]\nclass = M", fillcolor="#399de5ff"] ;
633 -> 634 ;
635 [label="TimeSlot(0-3) <= 1.0\ngini = 0.48\nsamples = 5\nvalue = [3, 2]\nclass = F", fillcolor="#e5813955"] ;
633 -> 635 ;
636 [label="gini = 0.0\nsamples = 1\nvalue = [0, 1]\nclass = M", fillcolor="#399de5ff"] ;
635 -> 636 ;
637 [label="Age <= 11.5\ngini = 0.375\nsamples = 4\nvalue = [3, 1]\nclass = F", fillcolor="#e58139aa"] ;
635 -> 637 ;
638 [label="gini = 0.0\nsamples = 2\nvalue = [2, 0]\nclass = F", fillcolor="#e58139ff"] ;
637 -> 638 ;
639 [label="Age <= 12.5\ngini = 0.5\nsamples = 2\nvalue = [1, 1]\nclass = F", fillcolor="#e5813900"] ;
637 -> 639 ;
640 [label="gini = 0.0\nsamples = 1\nvalue = [0, 1]\nclass = M", fillcolor="#399de5ff"] ;
639 -> 640 ;
641 [label="gini = 0.0\nsamples = 1\nvalue = [1, 0]\nclass = F", fillcolor="#e58139ff"] ;
639 -> 641 ;
642 [label="TimeSlot(8-11) <= 2.5\ngini = 0.493\nsamples = 59\nvalue = [26, 33]\nclass = M", fillcolor="#399de536"] ;
616 -> 642 ;
643 [label="Age <= 18.5\ngini = 0.456\nsamples = 37\nvalue = [13, 24]\nclass = M", fillcolor="#399de575"] ;
642 -> 643 ;
644 [label="TimeSlot(8-11) <= 1.5\ngini = 0.375\nsamples = 4\nvalue = [3, 1]\nclass = F", fillcolor="#e58139aa"] ;
643 -> 644 ;
645 [label="gini = 0.0\nsamples = 3\nvalue = [3, 0]\nclass = F", fillcolor="#e58139ff"] ;
644 -> 645 ;
646 [label="gini = 0.0\nsamples = 1\nvalue = [0, 1]\nclass = M", fillcolor="#399de5ff"] ;
644 -> 646 ;
647 [label="Age <= 28.0\ngini = 0.422\nsamples = 33\nvalue = [10, 23]\nclass = M", fillcolor="#399de590"] ;
643 -> 647 ;
648 [label="TimeSlot(8-11) <= 1.5\ngini = 0.305\nsamples = 16\nvalue = [3, 13]\nclass = M", fillcolor="#399de5c4"] ;
647 -> 648 ;
649 [label="Age <= 21.0\ngini = 0.165\nsamples = 11\nvalue = [1, 10]\nclass = M", fillcolor="#399de5e6"] ;
648 -> 649 ;
650 [label="TimeSlot(12-13) <= 0.5\ngini = 0.444\nsamples = 3\nvalue = [1, 2]\nclass = M", fillcolor="#399de57f"] ;
649 -> 650 ;
651 [label="gini = 0.0\nsamples = 1\nvalue = [1, 0]\nclass = F", fillcolor="#e58139ff"] ;
650 -> 651 ;
652 [label="gini = 0.0\nsamples = 2\nvalue = [0, 2]\nclass = M", fillcolor="#399de5ff"] ;
650 -> 652 ;
653 [label="gini = 0.0\nsamples = 8\nvalue = [0, 8]\nclass = M", fillcolor="#399de5ff"] ;
649 -> 653 ;
654 [label="TimeSlot(0-3) <= 1.5\ngini = 0.48\nsamples = 5\nvalue = [2, 3]\nclass = M", fillcolor="#399de555"] ;
648 -> 654 ;
655 [label="TimeSlot(0-3) <= 0.5\ngini = 0.444\nsamples = 3\nvalue = [2, 1]\nclass = F", fillcolor="#e581397f"] ;
654 -> 655 ;
656 [label="TimeSlot(16-20) <= 3.5\ngini = 0.5\nsamples = 2\nvalue = [1, 1]\nclass = F", fillcolor="#e5813900"] ;
655 -> 656 ;
657 [label="gini = 0.0\nsamples = 1\nvalue = [0, 1]\nclass = M", fillcolor="#399de5ff"] ;
656 -> 657 ;
658 [label="gini = 0.0\nsamples = 1\nvalue = [1, 0]\nclass = F", fillcolor="#e58139ff"] ;
656 -> 658 ;
659 [label="gini = 0.0\nsamples = 1\nvalue = [1, 0]\nclass = F", fillcolor="#e58139ff"] ;
655 -> 659 ;
660 [label="gini = 0.0\nsamples = 2\nvalue = [0, 2]\nclass = M", fillcolor="#399de5ff"] ;
654 -> 660 ;
661 [label="Age <= 30.5\ngini = 0.484\nsamples = 17\nvalue = [7, 10]\nclass = M", fillcolor="#399de54d"] ;
647 -> 661 ;
662 [label="gini = 0.0\nsamples = 2\nvalue = [2, 0]\nclass = F", fillcolor="#e58139ff"] ;
661 -> 662 ;
663 [label="TimeSlot(8-11) <= 1.5\ngini = 0.444\nsamples = 15\nvalue = [5, 10]\nclass = M", fillcolor="#399de57f"] ;
661 -> 663 ;
664 [label="TimeSlot(12-13) <= 0.5\ngini = 0.494\nsamples = 9\nvalue = [4, 5]\nclass = M", fillcolor="#399de533"] ;
663 -> 664 ;
665 [label="TimeSlot(4-7) <= 0.5\ngini = 0.375\nsamples = 4\nvalue = [1, 3]\nclass = M", fillcolor="#399de5aa"] ;
664 -> 665 ;
666 [label="gini = 0.0\nsamples = 1\nvalue = [1, 0]\nclass = F", fillcolor="#e58139ff"] ;
665 -> 666 ;
667 [label="gini = 0.0\nsamples = 3\nvalue = [0, 3]\nclass = M", fillcolor="#399de5ff"] ;
665 -> 667 ;
668 [label="TimeSlot(4-7) <= 0.5\ngini = 0.48\nsamples = 5\nvalue = [3, 2]\nclass = F", fillcolor="#e5813955"] ;
664 -> 668 ;
669 [label="gini = 0.0\nsamples = 1\nvalue = [0, 1]\nclass = M", fillcolor="#399de5ff"] ;
668 -> 669 ;
670 [label="Age <= 32.0\ngini = 0.375\nsamples = 4\nvalue = [3, 1]\nclass = F", fillcolor="#e58139aa"] ;
668 -> 670 ;
671 [label="TimeSlot(16-20) <= 3.5\ngini = 0.5\nsamples = 2\nvalue = [1, 1]\nclass = F", fillcolor="#e5813900"] ;
670 -> 671 ;
672 [label="gini = 0.0\nsamples = 1\nvalue = [1, 0]\nclass = F", fillcolor="#e58139ff"] ;
671 -> 672 ;
673 [label="gini = 0.0\nsamples = 1\nvalue = [0, 1]\nclass = M", fillcolor="#399de5ff"] ;
671 -> 673 ;
674 [label="gini = 0.0\nsamples = 2\nvalue = [2, 0]\nclass = F", fillcolor="#e58139ff"] ;
670 -> 674 ;
675 [label="TimeSlot(12-13) <= 0.5\ngini = 0.278\nsamples = 6\nvalue = [1, 5]\nclass = M", fillcolor="#399de5cc"] ;
663 -> 675 ;
676 [label="gini = 0.0\nsamples = 1\nvalue = [1, 0]\nclass = F", fillcolor="#e58139ff"] ;
675 -> 676 ;
677 [label="gini = 0.0\nsamples = 5\nvalue = [0, 5]\nclass = M", fillcolor="#399de5ff"] ;
675 -> 677 ;
678 [label="TimeSlot(0-3) <= 0.5\ngini = 0.483\nsamples = 22\nvalue = [13, 9]\nclass = F", fillcolor="#e581394e"] ;
642 -> 678 ;
679 [label="Age <= 17.5\ngini = 0.219\nsamples = 8\nvalue = [7, 1]\nclass = F", fillcolor="#e58139db"] ;
678 -> 679 ;
680 [label="gini = 0.0\nsamples = 1\nvalue = [0, 1]\nclass = M", fillcolor="#399de5ff"] ;
679 -> 680 ;
681 [label="gini = 0.0\nsamples = 7\nvalue = [7, 0]\nclass = F", fillcolor="#e58139ff"] ;
679 -> 681 ;
682 [label="TimeSlot(16-20) <= 3.5\ngini = 0.49\nsamples = 14\nvalue = [6, 8]\nclass = M", fillcolor="#399de540"] ;
678 -> 682 ;
683 [label="Age <= 34.5\ngini = 0.375\nsamples = 8\nvalue = [2, 6]\nclass = M", fillcolor="#399de5aa"] ;
682 -> 683 ;
684 [label="TimeSlot(21-23) <= 0.5\ngini = 0.245\nsamples = 7\nvalue = [1, 6]\nclass = M", fillcolor="#399de5d4"] ;
683 -> 684 ;
685 [label="TimeSlot(0-3) <= 1.5\ngini = 0.5\nsamples = 2\nvalue = [1, 1]\nclass = F", fillcolor="#e5813900"] ;
684 -> 685 ;
686 [label="gini = 0.0\nsamples = 1\nvalue = [1, 0]\nclass = F", fillcolor="#e58139ff"] ;
685 -> 686 ;
687 [label="gini = 0.0\nsamples = 1\nvalue = [0, 1]\nclass = M", fillcolor="#399de5ff"] ;
685 -> 687 ;
688 [label="gini = 0.0\nsamples = 5\nvalue = [0, 5]\nclass = M", fillcolor="#399de5ff"] ;
684 -> 688 ;
689 [label="gini = 0.0\nsamples = 1\nvalue = [1, 0]\nclass = F", fillcolor="#e58139ff"] ;
683 -> 689 ;
690 [label="TimeSlot(4-7) <= 0.5\ngini = 0.444\nsamples = 6\nvalue = [4, 2]\nclass = F", fillcolor="#e581397f"] ;
682 -> 690 ;
691 [label="gini = 0.0\nsamples = 3\nvalue = [3, 0]\nclass = F", fillcolor="#e58139ff"] ;
690 -> 691 ;
692 [label="TimeSlot(21-23) <= 0.5\ngini = 0.444\nsamples = 3\nvalue = [1, 2]\nclass = M", fillcolor="#399de57f"] ;
690 -> 692 ;
693 [label="gini = 0.0\nsamples = 2\nvalue = [0, 2]\nclass = M", fillcolor="#399de5ff"] ;
692 -> 693 ;
694 [label="gini = 0.0\nsamples = 1\nvalue = [1, 0]\nclass = F", fillcolor="#e58139ff"] ;
692 -> 694 ;
695 [label="Age <= 8.5\ngini = 0.49\nsamples = 305\nvalue = [174, 131]\nclass = F", fillcolor="#e581393f"] ;
421 -> 695 ;
696 [label="TimeSlot(4-7) <= 2.5\ngini = 0.444\nsamples = 9\nvalue = [3, 6]\nclass = M", fillcolor="#399de57f"] ;
695 -> 696 ;
697 [label="gini = 0.0\nsamples = 5\nvalue = [0, 5]\nclass = M", fillcolor="#399de5ff"] ;
696 -> 697 ;
698 [label="TimeSlot(16-20) <= 2.0\ngini = 0.375\nsamples = 4\nvalue = [3, 1]\nclass = F", fillcolor="#e58139aa"] ;
696 -> 698 ;
699 [label="gini = 0.0\nsamples = 3\nvalue = [3, 0]\nclass = F", fillcolor="#e58139ff"] ;
698 -> 699 ;
700 [label="gini = 0.0\nsamples = 1\nvalue = [0, 1]\nclass = M", fillcolor="#399de5ff"] ;
698 -> 700 ;
701 [label="Age <= 9.5\ngini = 0.488\nsamples = 296\nvalue = [171, 125]\nclass = F", fillcolor="#e5813945"] ;
695 -> 701 ;
702 [label="TimeSlot(8-11) <= 1.5\ngini = 0.401\nsamples = 18\nvalue = [13, 5]\nclass = F", fillcolor="#e581399d"] ;
701 -> 702 ;
703 [label="TimeSlot(16-20) <= 3.5\ngini = 0.473\nsamples = 13\nvalue = [8, 5]\nclass = F", fillcolor="#e5813960"] ;
702 -> 703 ;
704 [label="TimeSlot(16-20) <= 0.5\ngini = 0.444\nsamples = 12\nvalue = [8, 4]\nclass = F", fillcolor="#e581397f"] ;
703 -> 704 ;
705 [label="TimeSlot(21-23) <= 0.5\ngini = 0.444\nsamples = 3\nvalue = [1, 2]\nclass = M", fillcolor="#399de57f"] ;
704 -> 705 ;
706 [label="gini = 0.0\nsamples = 2\nvalue = [0, 2]\nclass = M", fillcolor="#399de5ff"] ;
705 -> 706 ;
707 [label="gini = 0.0\nsamples = 1\nvalue = [1, 0]\nclass = F", fillcolor="#e58139ff"] ;
705 -> 707 ;
708 [label="TimeSlot(0-3) <= 0.5\ngini = 0.346\nsamples = 9\nvalue = [7, 2]\nclass = F", fillcolor="#e58139b6"] ;
704 -> 708 ;
709 [label="TimeSlot(12-13) <= 0.5\ngini = 0.5\nsamples = 4\nvalue = [2, 2]\nclass = F", fillcolor="#e5813900"] ;
708 -> 709 ;
710 [label="gini = 0.0\nsamples = 1\nvalue = [1, 0]\nclass = F", fillcolor="#e58139ff"] ;
709 -> 710 ;
711 [label="TimeSlot(16-20) <= 1.5\ngini = 0.444\nsamples = 3\nvalue = [1, 2]\nclass = M", fillcolor="#399de57f"] ;
709 -> 711 ;
712 [label="gini = 0.0\nsamples = 1\nvalue = [0, 1]\nclass = M", fillcolor="#399de5ff"] ;
711 -> 712 ;
713 [label="TimeSlot(8-11) <= 0.5\ngini = 0.5\nsamples = 2\nvalue = [1, 1]\nclass = F", fillcolor="#e5813900"] ;
711 -> 713 ;
714 [label="gini = 0.0\nsamples = 1\nvalue = [1, 0]\nclass = F", fillcolor="#e58139ff"] ;
713 -> 714 ;
715 [label="gini = 0.0\nsamples = 1\nvalue = [0, 1]\nclass = M", fillcolor="#399de5ff"] ;
713 -> 715 ;
716 [label="gini = 0.0\nsamples = 5\nvalue = [5, 0]\nclass = F", fillcolor="#e58139ff"] ;
708 -> 716 ;
717 [label="gini = 0.0\nsamples = 1\nvalue = [0, 1]\nclass = M", fillcolor="#399de5ff"] ;
703 -> 717 ;
718 [label="gini = 0.0\nsamples = 5\nvalue = [5, 0]\nclass = F", fillcolor="#e58139ff"] ;
702 -> 718 ;
719 [label="Age <= 12.5\ngini = 0.491\nsamples = 278\nvalue = [158, 120]\nclass = F", fillcolor="#e581393d"] ;
701 -> 719 ;
720 [label="TimeSlot(21-23) <= 0.5\ngini = 0.485\nsamples = 29\nvalue = [12, 17]\nclass = M", fillcolor="#399de54b"] ;
719 -> 720 ;
721 [label="Age <= 10.5\ngini = 0.432\nsamples = 19\nvalue = [6, 13]\nclass = M", fillcolor="#399de589"] ;
720 -> 721 ;
722 [label="TimeSlot(8-11) <= 1.0\ngini = 0.49\nsamples = 7\nvalue = [4, 3]\nclass = F", fillcolor="#e5813940"] ;
721 -> 722 ;
723 [label="gini = 0.0\nsamples = 2\nvalue = [2, 0]\nclass = F", fillcolor="#e58139ff"] ;
722 -> 723 ;
724 [label="TimeSlot(12-13) <= 0.5\ngini = 0.48\nsamples = 5\nvalue = [2, 3]\nclass = M", fillcolor="#399de555"] ;
722 -> 724 ;
725 [label="TimeSlot(8-11) <= 2.5\ngini = 0.5\nsamples = 4\nvalue = [2, 2]\nclass = F", fillcolor="#e5813900"] ;
724 -> 725 ;
726 [label="TimeSlot(16-20) <= 2.0\ngini = 0.444\nsamples = 3\nvalue = [1, 2]\nclass = M", fillcolor="#399de57f"] ;
725 -> 726 ;
727 [label="gini = 0.0\nsamples = 2\nvalue = [0, 2]\nclass = M", fillcolor="#399de5ff"] ;
726 -> 727 ;
728 [label="gini = 0.0\nsamples = 1\nvalue = [1, 0]\nclass = F", fillcolor="#e58139ff"] ;
726 -> 728 ;
729 [label="gini = 0.0\nsamples = 1\nvalue = [1, 0]\nclass = F", fillcolor="#e58139ff"] ;
725 -> 729 ;
730 [label="gini = 0.0\nsamples = 1\nvalue = [0, 1]\nclass = M", fillcolor="#399de5ff"] ;
724 -> 730 ;
731 [label="TimeSlot(0-3) <= 0.5\ngini = 0.278\nsamples = 12\nvalue = [2, 10]\nclass = M", fillcolor="#399de5cc"] ;
721 -> 731 ;
732 [label="TimeSlot(8-11) <= 0.5\ngini = 0.408\nsamples = 7\nvalue = [2, 5]\nclass = M", fillcolor="#399de599"] ;
731 -> 732 ;
733 [label="gini = 0.0\nsamples = 1\nvalue = [1, 0]\nclass = F", fillcolor="#e58139ff"] ;
732 -> 733 ;
734 [label="Age <= 11.5\ngini = 0.278\nsamples = 6\nvalue = [1, 5]\nclass = M", fillcolor="#399de5cc"] ;
732 -> 734 ;
735 [label="gini = 0.0\nsamples = 4\nvalue = [0, 4]\nclass = M", fillcolor="#399de5ff"] ;
734 -> 735 ;
736 [label="TimeSlot(4-7) <= 2.5\ngini = 0.5\nsamples = 2\nvalue = [1, 1]\nclass = F", fillcolor="#e5813900"] ;
734 -> 736 ;
737 [label="gini = 0.0\nsamples = 1\nvalue = [1, 0]\nclass = F", fillcolor="#e58139ff"] ;
736 -> 737 ;
738 [label="gini = 0.0\nsamples = 1\nvalue = [0, 1]\nclass = M", fillcolor="#399de5ff"] ;
736 -> 738 ;
739 [label="gini = 0.0\nsamples = 5\nvalue = [0, 5]\nclass = M", fillcolor="#399de5ff"] ;
731 -> 739 ;
740 [label="TimeSlot(16-20) <= 2.5\ngini = 0.48\nsamples = 10\nvalue = [6, 4]\nclass = F", fillcolor="#e5813955"] ;
720 -> 740 ;
741 [label="Age <= 11.5\ngini = 0.32\nsamples = 5\nvalue = [4, 1]\nclass = F", fillcolor="#e58139bf"] ;
740 -> 741 ;
742 [label="gini = 0.0\nsamples = 3\nvalue = [3, 0]\nclass = F", fillcolor="#e58139ff"] ;
741 -> 742 ;
743 [label="TimeSlot(12-13) <= 0.5\ngini = 0.5\nsamples = 2\nvalue = [1, 1]\nclass = F", fillcolor="#e5813900"] ;
741 -> 743 ;
744 [label="gini = 0.0\nsamples = 1\nvalue = [0, 1]\nclass = M", fillcolor="#399de5ff"] ;
743 -> 744 ;
745 [label="gini = 0.0\nsamples = 1\nvalue = [1, 0]\nclass = F", fillcolor="#e58139ff"] ;
743 -> 745 ;
746 [label="TimeSlot(8-11) <= 2.0\ngini = 0.48\nsamples = 5\nvalue = [2, 3]\nclass = M", fillcolor="#399de555"] ;
740 -> 746 ;
747 [label="TimeSlot(16-20) <= 3.5\ngini = 0.444\nsamples = 3\nvalue = [2, 1]\nclass = F", fillcolor="#e581397f"] ;
746 -> 747 ;
748 [label="gini = 0.0\nsamples = 2\nvalue = [2, 0]\nclass = F", fillcolor="#e58139ff"] ;
747 -> 748 ;
749 [label="gini = 0.0\nsamples = 1\nvalue = [0, 1]\nclass = M", fillcolor="#399de5ff"] ;
747 -> 749 ;
750 [label="gini = 0.0\nsamples = 2\nvalue = [0, 2]\nclass = M", fillcolor="#399de5ff"] ;
746 -> 750 ;
751 [label="Age <= 19.5\ngini = 0.485\nsamples = 249\nvalue = [146, 103]\nclass = F", fillcolor="#e581394b"] ;
719 -> 751 ;
752 [label="TimeSlot(0-3) <= 0.5\ngini = 0.459\nsamples = 73\nvalue = [47, 26]\nclass = F", fillcolor="#e5813972"] ;
751 -> 752 ;
753 [label="Age <= 15.5\ngini = 0.26\nsamples = 26\nvalue = [22, 4]\nclass = F", fillcolor="#e58139d1"] ;
752 -> 753 ;
754 [label="Age <= 14.5\ngini = 0.391\nsamples = 15\nvalue = [11, 4]\nclass = F", fillcolor="#e58139a2"] ;
753 -> 754 ;
755 [label="TimeSlot(4-7) <= 2.5\ngini = 0.165\nsamples = 11\nvalue = [10, 1]\nclass = F", fillcolor="#e58139e6"] ;
754 -> 755 ;
756 [label="TimeSlot(16-20) <= 1.5\ngini = 0.444\nsamples = 3\nvalue = [2, 1]\nclass = F", fillcolor="#e581397f"] ;
755 -> 756 ;
757 [label="gini = 0.0\nsamples = 1\nvalue = [0, 1]\nclass = M", fillcolor="#399de5ff"] ;
756 -> 757 ;
758 [label="gini = 0.0\nsamples = 2\nvalue = [2, 0]\nclass = F", fillcolor="#e58139ff"] ;
756 -> 758 ;
759 [label="gini = 0.0\nsamples = 8\nvalue = [8, 0]\nclass = F", fillcolor="#e58139ff"] ;
755 -> 759 ;
760 [label="TimeSlot(21-23) <= 0.5\ngini = 0.375\nsamples = 4\nvalue = [1, 3]\nclass = M", fillcolor="#399de5aa"] ;
754 -> 760 ;
761 [label="TimeSlot(8-11) <= 1.0\ngini = 0.5\nsamples = 2\nvalue = [1, 1]\nclass = F", fillcolor="#e5813900"] ;
760 -> 761 ;
762 [label="gini = 0.0\nsamples = 1\nvalue = [1, 0]\nclass = F", fillcolor="#e58139ff"] ;
761 -> 762 ;
763 [label="gini = 0.0\nsamples = 1\nvalue = [0, 1]\nclass = M", fillcolor="#399de5ff"] ;
761 -> 763 ;
764 [label="gini = 0.0\nsamples = 2\nvalue = [0, 2]\nclass = M", fillcolor="#399de5ff"] ;
760 -> 764 ;
765 [label="gini = 0.0\nsamples = 11\nvalue = [11, 0]\nclass = F", fillcolor="#e58139ff"] ;
753 -> 765 ;
766 [label="TimeSlot(16-20) <= 1.5\ngini = 0.498\nsamples = 47\nvalue = [25, 22]\nclass = F", fillcolor="#e581391f"] ;
752 -> 766 ;
767 [label="TimeSlot(8-11) <= 1.5\ngini = 0.43\nsamples = 16\nvalue = [5, 11]\nclass = M", fillcolor="#399de58b"] ;
766 -> 767 ;
768 [label="gini = 0.0\nsamples = 6\nvalue = [0, 6]\nclass = M", fillcolor="#399de5ff"] ;
767 -> 768 ;
769 [label="TimeSlot(12-13) <= 0.5\ngini = 0.5\nsamples = 10\nvalue = [5, 5]\nclass = F", fillcolor="#e5813900"] ;
767 -> 769 ;
770 [label="gini = 0.0\nsamples = 2\nvalue = [2, 0]\nclass = F", fillcolor="#e58139ff"] ;
769 -> 770 ;
771 [label="Age <= 18.5\ngini = 0.469\nsamples = 8\nvalue = [3, 5]\nclass = M", fillcolor="#399de566"] ;
769 -> 771 ;
772 [label="Age <= 16.5\ngini = 0.408\nsamples = 7\nvalue = [2, 5]\nclass = M", fillcolor="#399de599"] ;
771 -> 772 ;
773 [label="TimeSlot(21-23) <= 0.5\ngini = 0.5\nsamples = 4\nvalue = [2, 2]\nclass = F", fillcolor="#e5813900"] ;
772 -> 773 ;
774 [label="gini = 0.0\nsamples = 2\nvalue = [0, 2]\nclass = M", fillcolor="#399de5ff"] ;
773 -> 774 ;
775 [label="gini = 0.0\nsamples = 2\nvalue = [2, 0]\nclass = F", fillcolor="#e58139ff"] ;
773 -> 775 ;
776 [label="gini = 0.0\nsamples = 3\nvalue = [0, 3]\nclass = M", fillcolor="#399de5ff"] ;
772 -> 776 ;
777 [label="gini = 0.0\nsamples = 1\nvalue = [1, 0]\nclass = F", fillcolor="#e58139ff"] ;
771 -> 777 ;
778 [label="TimeSlot(16-20) <= 3.5\ngini = 0.458\nsamples = 31\nvalue = [20, 11]\nclass = F", fillcolor="#e5813973"] ;
766 -> 778 ;
779 [label="TimeSlot(0-3) <= 1.5\ngini = 0.408\nsamples = 21\nvalue = [15, 6]\nclass = F", fillcolor="#e5813999"] ;
778 -> 779 ;
780 [label="TimeSlot(4-7) <= 2.5\ngini = 0.5\nsamples = 8\nvalue = [4, 4]\nclass = F", fillcolor="#e5813900"] ;
779 -> 780 ;
781 [label="TimeSlot(21-23) <= 0.5\ngini = 0.32\nsamples = 5\nvalue = [4, 1]\nclass = F", fillcolor="#e58139bf"] ;
780 -> 781 ;
782 [label="gini = 0.0\nsamples = 3\nvalue = [3, 0]\nclass = F", fillcolor="#e58139ff"] ;
781 -> 782 ;
783 [label="Age <= 17.5\ngini = 0.5\nsamples = 2\nvalue = [1, 1]\nclass = F", fillcolor="#e5813900"] ;
781 -> 783 ;
784 [label="gini = 0.0\nsamples = 1\nvalue = [1, 0]\nclass = F", fillcolor="#e58139ff"] ;
783 -> 784 ;
785 [label="gini = 0.0\nsamples = 1\nvalue = [0, 1]\nclass = M", fillcolor="#399de5ff"] ;
783 -> 785 ;
786 [label="gini = 0.0\nsamples = 3\nvalue = [0, 3]\nclass = M", fillcolor="#399de5ff"] ;
780 -> 786 ;
787 [label="TimeSlot(4-7) <= 2.5\ngini = 0.26\nsamples = 13\nvalue = [11, 2]\nclass = F", fillcolor="#e58139d1"] ;
779 -> 787 ;
788 [label="TimeSlot(12-13) <= 0.5\ngini = 0.5\nsamples = 4\nvalue = [2, 2]\nclass = F", fillcolor="#e5813900"] ;
787 -> 788 ;
789 [label="gini = 0.0\nsamples = 2\nvalue = [2, 0]\nclass = F", fillcolor="#e58139ff"] ;
788 -> 789 ;
790 [label="gini = 0.0\nsamples = 2\nvalue = [0, 2]\nclass = M", fillcolor="#399de5ff"] ;
788 -> 790 ;
791 [label="gini = 0.0\nsamples = 9\nvalue = [9, 0]\nclass = F", fillcolor="#e58139ff"] ;
787 -> 791 ;
792 [label="TimeSlot(0-3) <= 1.5\ngini = 0.5\nsamples = 10\nvalue = [5, 5]\nclass = F", fillcolor="#e5813900"] ;
778 -> 792 ;
793 [label="TimeSlot(21-23) <= 0.5\ngini = 0.32\nsamples = 5\nvalue = [4, 1]\nclass = F", fillcolor="#e58139bf"] ;
792 -> 793 ;
794 [label="TimeSlot(8-11) <= 0.5\ngini = 0.5\nsamples = 2\nvalue = [1, 1]\nclass = F", fillcolor="#e5813900"] ;
793 -> 794 ;
795 [label="gini = 0.0\nsamples = 1\nvalue = [1, 0]\nclass = F", fillcolor="#e58139ff"] ;
794 -> 795 ;
796 [label="gini = 0.0\nsamples = 1\nvalue = [0, 1]\nclass = M", fillcolor="#399de5ff"] ;
794 -> 796 ;
797 [label="gini = 0.0\nsamples = 3\nvalue = [3, 0]\nclass = F", fillcolor="#e58139ff"] ;
793 -> 797 ;
798 [label="Age <= 15.0\ngini = 0.32\nsamples = 5\nvalue = [1, 4]\nclass = M", fillcolor="#399de5bf"] ;
792 -> 798 ;
799 [label="gini = 0.0\nsamples = 2\nvalue = [0, 2]\nclass = M", fillcolor="#399de5ff"] ;
798 -> 799 ;
800 [label="Age <= 18.0\ngini = 0.444\nsamples = 3\nvalue = [1, 2]\nclass = M", fillcolor="#399de57f"] ;
798 -> 800 ;
801 [label="gini = 0.0\nsamples = 1\nvalue = [1, 0]\nclass = F", fillcolor="#e58139ff"] ;
800 -> 801 ;
802 [label="gini = 0.0\nsamples = 2\nvalue = [0, 2]\nclass = M", fillcolor="#399de5ff"] ;
800 -> 802 ;
803 [label="Age <= 25.5\ngini = 0.492\nsamples = 176\nvalue = [99, 77]\nclass = F", fillcolor="#e5813939"] ;
751 -> 803 ;
804 [label="TimeSlot(8-11) <= 0.5\ngini = 0.5\nsamples = 67\nvalue = [34, 33]\nclass = F", fillcolor="#e5813908"] ;
803 -> 804 ;
805 [label="TimeSlot(0-3) <= 1.5\ngini = 0.444\nsamples = 15\nvalue = [5, 10]\nclass = M", fillcolor="#399de57f"] ;
804 -> 805 ;
806 [label="TimeSlot(12-13) <= 0.5\ngini = 0.32\nsamples = 10\nvalue = [2, 8]\nclass = M", fillcolor="#399de5bf"] ;
805 -> 806 ;
807 [label="gini = 0.0\nsamples = 7\nvalue = [0, 7]\nclass = M", fillcolor="#399de5ff"] ;
806 -> 807 ;
808 [label="Age <= 20.5\ngini = 0.444\nsamples = 3\nvalue = [2, 1]\nclass = F", fillcolor="#e581397f"] ;
806 -> 808 ;
809 [label="gini = 0.0\nsamples = 1\nvalue = [0, 1]\nclass = M", fillcolor="#399de5ff"] ;
808 -> 809 ;
810 [label="gini = 0.0\nsamples = 2\nvalue = [2, 0]\nclass = F", fillcolor="#e58139ff"] ;
808 -> 810 ;
811 [label="TimeSlot(16-20) <= 2.5\ngini = 0.48\nsamples = 5\nvalue = [3, 2]\nclass = F", fillcolor="#e5813955"] ;
805 -> 811 ;
812 [label="gini = 0.0\nsamples = 3\nvalue = [3, 0]\nclass = F", fillcolor="#e58139ff"] ;
811 -> 812 ;
813 [label="gini = 0.0\nsamples = 2\nvalue = [0, 2]\nclass = M", fillcolor="#399de5ff"] ;
811 -> 813 ;
814 [label="TimeSlot(8-11) <= 1.5\ngini = 0.493\nsamples = 52\nvalue = [29, 23]\nclass = F", fillcolor="#e5813935"] ;
804 -> 814 ;
815 [label="TimeSlot(16-20) <= 3.5\ngini = 0.375\nsamples = 16\nvalue = [12, 4]\nclass = F", fillcolor="#e58139aa"] ;
814 -> 815 ;
816 [label="TimeSlot(16-20) <= 2.5\ngini = 0.32\nsamples = 15\nvalue = [12, 3]\nclass = F", fillcolor="#e58139bf"] ;
815 -> 816 ;
817 [label="TimeSlot(12-13) <= 0.5\ngini = 0.444\nsamples = 9\nvalue = [6, 3]\nclass = F", fillcolor="#e581397f"] ;
816 -> 817 ;
818 [label="TimeSlot(0-3) <= 1.5\ngini = 0.5\nsamples = 6\nvalue = [3, 3]\nclass = F", fillcolor="#e5813900"] ;
817 -> 818 ;
819 [label="TimeSlot(21-23) <= 0.5\ngini = 0.375\nsamples = 4\nvalue = [1, 3]\nclass = M", fillcolor="#399de5aa"] ;
818 -> 819 ;
820 [label="gini = 0.0\nsamples = 3\nvalue = [0, 3]\nclass = M", fillcolor="#399de5ff"] ;
819 -> 820 ;
821 [label="gini = 0.0\nsamples = 1\nvalue = [1, 0]\nclass = F", fillcolor="#e58139ff"] ;
819 -> 821 ;
822 [label="gini = 0.0\nsamples = 2\nvalue = [2, 0]\nclass = F", fillcolor="#e58139ff"] ;
818 -> 822 ;
823 [label="gini = 0.0\nsamples = 3\nvalue = [3, 0]\nclass = F", fillcolor="#e58139ff"] ;
817 -> 823 ;
824 [label="gini = 0.0\nsamples = 6\nvalue = [6, 0]\nclass = F", fillcolor="#e58139ff"] ;
816 -> 824 ;
825 [label="gini = 0.0\nsamples = 1\nvalue = [0, 1]\nclass = M", fillcolor="#399de5ff"] ;
815 -> 825 ;
826 [label="TimeSlot(0-3) <= 1.5\ngini = 0.498\nsamples = 36\nvalue = [17, 19]\nclass = M", fillcolor="#399de51b"] ;
814 -> 826 ;
827 [label="TimeSlot(0-3) <= 0.5\ngini = 0.488\nsamples = 26\nvalue = [15, 11]\nclass = F", fillcolor="#e5813944"] ;
826 -> 827 ;
828 [label="TimeSlot(16-20) <= 3.5\ngini = 0.5\nsamples = 14\nvalue = [7, 7]\nclass = F", fillcolor="#e5813900"] ;
827 -> 828 ;
829 [label="TimeSlot(4-7) <= 2.5\ngini = 0.463\nsamples = 11\nvalue = [4, 7]\nclass = M", fillcolor="#399de56d"] ;
828 -> 829 ;
830 [label="TimeSlot(16-20) <= 1.5\ngini = 0.278\nsamples = 6\nvalue = [1, 5]\nclass = M", fillcolor="#399de5cc"] ;
829 -> 830 ;
831 [label="gini = 0.0\nsamples = 3\nvalue = [0, 3]\nclass = M", fillcolor="#399de5ff"] ;
830 -> 831 ;
832 [label="TimeSlot(16-20) <= 2.5\ngini = 0.444\nsamples = 3\nvalue = [1, 2]\nclass = M", fillcolor="#399de57f"] ;
830 -> 832 ;
833 [label="gini = 0.0\nsamples = 1\nvalue = [1, 0]\nclass = F", fillcolor="#e58139ff"] ;
832 -> 833 ;
834 [label="gini = 0.0\nsamples = 2\nvalue = [0, 2]\nclass = M", fillcolor="#399de5ff"] ;
832 -> 834 ;
835 [label="Age <= 23.0\ngini = 0.48\nsamples = 5\nvalue = [3, 2]\nclass = F", fillcolor="#e5813955"] ;
829 -> 835 ;
836 [label="TimeSlot(16-20) <= 2.0\ngini = 0.444\nsamples = 3\nvalue = [1, 2]\nclass = M", fillcolor="#399de57f"] ;
835 -> 836 ;
837 [label="gini = 0.0\nsamples = 2\nvalue = [0, 2]\nclass = M", fillcolor="#399de5ff"] ;
836 -> 837 ;
838 [label="gini = 0.0\nsamples = 1\nvalue = [1, 0]\nclass = F", fillcolor="#e58139ff"] ;
836 -> 838 ;
839 [label="gini = 0.0\nsamples = 2\nvalue = [2, 0]\nclass = F", fillcolor="#e58139ff"] ;
835 -> 839 ;
840 [label="gini = 0.0\nsamples = 3\nvalue = [3, 0]\nclass = F", fillcolor="#e58139ff"] ;
828 -> 840 ;
841 [label="TimeSlot(16-20) <= 3.5\ngini = 0.444\nsamples = 12\nvalue = [8, 4]\nclass = F", fillcolor="#e581397f"] ;
827 -> 841 ;
842 [label="Age <= 22.5\ngini = 0.32\nsamples = 10\nvalue = [8, 2]\nclass = F", fillcolor="#e58139bf"] ;
841 -> 842 ;
843 [label="gini = 0.0\nsamples = 5\nvalue = [5, 0]\nclass = F", fillcolor="#e58139ff"] ;
842 -> 843 ;
844 [label="TimeSlot(12-13) <= 0.5\ngini = 0.48\nsamples = 5\nvalue = [3, 2]\nclass = F", fillcolor="#e5813955"] ;
842 -> 844 ;
845 [label="gini = 0.0\nsamples = 2\nvalue = [2, 0]\nclass = F", fillcolor="#e58139ff"] ;
844 -> 845 ;
846 [label="TimeSlot(16-20) <= 1.5\ngini = 0.444\nsamples = 3\nvalue = [1, 2]\nclass = M", fillcolor="#399de57f"] ;
844 -> 846 ;
847 [label="gini = 0.0\nsamples = 1\nvalue = [1, 0]\nclass = F", fillcolor="#e58139ff"] ;
846 -> 847 ;
848 [label="gini = 0.0\nsamples = 2\nvalue = [0, 2]\nclass = M", fillcolor="#399de5ff"] ;
846 -> 848 ;
849 [label="gini = 0.0\nsamples = 2\nvalue = [0, 2]\nclass = M", fillcolor="#399de5ff"] ;
841 -> 849 ;
850 [label="Age <= 20.5\ngini = 0.32\nsamples = 10\nvalue = [2, 8]\nclass = M", fillcolor="#399de5bf"] ;
826 -> 850 ;
851 [label="gini = 0.0\nsamples = 2\nvalue = [2, 0]\nclass = F", fillcolor="#e58139ff"] ;
850 -> 851 ;
852 [label="gini = 0.0\nsamples = 8\nvalue = [0, 8]\nclass = M", fillcolor="#399de5ff"] ;
850 -> 852 ;
853 [label="Age <= 27.5\ngini = 0.481\nsamples = 109\nvalue = [65, 44]\nclass = F", fillcolor="#e5813952"] ;
803 -> 853 ;
854 [label="TimeSlot(0-3) <= 0.5\ngini = 0.36\nsamples = 17\nvalue = [13, 4]\nclass = F", fillcolor="#e58139b1"] ;
853 -> 854 ;
855 [label="gini = 0.0\nsamples = 7\nvalue = [7, 0]\nclass = F", fillcolor="#e58139ff"] ;
854 -> 855 ;
856 [label="TimeSlot(21-23) <= 0.5\ngini = 0.48\nsamples = 10\nvalue = [6, 4]\nclass = F", fillcolor="#e5813955"] ;
854 -> 856 ;
857 [label="TimeSlot(8-11) <= 0.5\ngini = 0.375\nsamples = 4\nvalue = [1, 3]\nclass = M", fillcolor="#399de5aa"] ;
856 -> 857 ;
858 [label="gini = 0.0\nsamples = 1\nvalue = [1, 0]\nclass = F", fillcolor="#e58139ff"] ;
857 -> 858 ;
859 [label="gini = 0.0\nsamples = 3\nvalue = [0, 3]\nclass = M", fillcolor="#399de5ff"] ;
857 -> 859 ;
860 [label="TimeSlot(4-7) <= 2.5\ngini = 0.278\nsamples = 6\nvalue = [5, 1]\nclass = F", fillcolor="#e58139cc"] ;
856 -> 860 ;
861 [label="gini = 0.0\nsamples = 4\nvalue = [4, 0]\nclass = F", fillcolor="#e58139ff"] ;
860 -> 861 ;
862 [label="TimeSlot(8-11) <= 2.5\ngini = 0.5\nsamples = 2\nvalue = [1, 1]\nclass = F", fillcolor="#e5813900"] ;
860 -> 862 ;
863 [label="gini = 0.0\nsamples = 1\nvalue = [0, 1]\nclass = M", fillcolor="#399de5ff"] ;
862 -> 863 ;
864 [label="gini = 0.0\nsamples = 1\nvalue = [1, 0]\nclass = F", fillcolor="#e58139ff"] ;
862 -> 864 ;
865 [label="TimeSlot(21-23) <= 0.5\ngini = 0.491\nsamples = 92\nvalue = [52, 40]\nclass = F", fillcolor="#e581393b"] ;
853 -> 865 ;
866 [label="Age <= 30.5\ngini = 0.459\nsamples = 42\nvalue = [27, 15]\nclass = F", fillcolor="#e5813971"] ;
865 -> 866 ;
867 [label="TimeSlot(12-13) <= 0.5\ngini = 0.332\nsamples = 19\nvalue = [15, 4]\nclass = F", fillcolor="#e58139bb"] ;
866 -> 867 ;
868 [label="gini = 0.0\nsamples = 10\nvalue = [10, 0]\nclass = F", fillcolor="#e58139ff"] ;
867 -> 868 ;
869 [label="TimeSlot(0-3) <= 1.5\ngini = 0.494\nsamples = 9\nvalue = [5, 4]\nclass = F", fillcolor="#e5813933"] ;
867 -> 869 ;
870 [label="TimeSlot(16-20) <= 3.5\ngini = 0.444\nsamples = 6\nvalue = [2, 4]\nclass = M", fillcolor="#399de57f"] ;
869 -> 870 ;
871 [label="TimeSlot(0-3) <= 0.5\ngini = 0.32\nsamples = 5\nvalue = [1, 4]\nclass = M", fillcolor="#399de5bf"] ;
870 -> 871 ;
872 [label="gini = 0.0\nsamples = 3\nvalue = [0, 3]\nclass = M", fillcolor="#399de5ff"] ;
871 -> 872 ;
873 [label="Age <= 28.5\ngini = 0.5\nsamples = 2\nvalue = [1, 1]\nclass = F", fillcolor="#e5813900"] ;
871 -> 873 ;
874 [label="gini = 0.0\nsamples = 1\nvalue = [0, 1]\nclass = M", fillcolor="#399de5ff"] ;
